{"learner":{"attributes":{"scikit_learn":"{\"_estimator_type\": \"classifier\"}"},"feature_names":[],"feature_types":[],"gradient_booster":{"model":{"gbtree_model_param":{"num_parallel_tree":"1","num_trees":"100"},"iteration_indptr":[0,1,2,3,4,5,6,7,8,9,10,11,12,13,14,15,16,17,18,19,20,21,22,23,24,25,26,27,28,29,30,31,32,33,34,35,36,37,38,39,40,41,42,43,44,45,46,47,48,49,50,51,52,53,54,55,56,57,58,59,60,61,62,63,64,65,66,67,68,69,70,71,72,73,74,75,76,77,78,79,80,81,82,83,84,85,86,87,88,89,90,91,92,93,94,95,96,97,98,99,100],"tree_info":[0,0,0,0,0,0,0,0,0,0,0,0,0,0,0,0,0,0,0,0,0,0,0,0,0,0,0,0,0,0,0,0,0,0,0,0,0,0,0,0,0,0,0,0,0,0,0,0,0,0,0,0,0,0,0,0,0,0,0,0,0,0,0,0,0,0,0,0,0,0,0,0,0,0,0,0,0,0,0,0,0,0,0,0,0,0,0,0,0,0,0,0,0,0,0,0,0,0,0,0],"trees":[{"base_weights":[-4.1377196E-1,-8.963168E-1,-2.0594949E-1,-6.8717754E-1,-1.0365098E0,-8.7600476E-1,-8.127448E-2,-9.5689803E-1,-2.9697964E-1,-1.1402879E0,-9.538686E-1,-7.093063E-1,-1.0866207E0,-7.4267936E-1,4.4191447E-3,-1.0566194E0,-7.387703E-1,-8.99126E-1,-1.6135365E-1,-1.4731632E-2,-1.1420197E0,-7.196881E-1,-1.131207E0,-8.6520296E-1,-3.9221978E-1,-1.1166239E0,-6.453328E-1,-5.615115E-1,-9.9764115E-1,2.8794488E-2,-9.814426E-1,-1.0608943E0,2.6004702E-1,-5.6061155E-1,-8.6123294E-1,-9.408256E-1,5.5582136E-1,-1.2690072E-1,-8.8572896E-1,-3.502659E-1,-1.063907E0,-1.0930029E0,-4.6992475E-1,-1.0008565E0,-3.5453314E-1,-1.0286909E0,-7.437573E-1,-2.2291341E-1,-9.8441696E-1,1.1182199E-1,-1.119724E0,7.023405E-1,-7.897696E-1,-7.9235476E-1,-2.1435714E-1,1.8111622E-1,-1.004797E0,-5.953615E-1,6.1682116E-2,-1.1081156E0,-7.243106E-1,-3.391012E-1,-2.8105423E-1,-2.2150303E-1,-8.978188E-2,1.0354245E-1,-2.6369718E-1,-3.1054363E-1,-1.337162E-1,-9.4943546E-2,3.498541E-1,-1.5178226E-1,-2.6210856E-2,1.1182199E-1,-2.8664297E-1,-2.652169E-1,-3.5211083E-1,-2.338901E-1,-3.400343E-1,9.361315E-2,-1.5097183E-1,-3.4750375E-1,-1.2401625E-1,-2.0107542E-1,-3.145184E-1,9.3069814E-2,-2.2644243E-1,-1.2079314E-1,-3.495781E-2,1.1182199E-1,-3.0410162E-1,-3.4890032E-1,-2.9709587E-1,-2.0739979E-1,4.2804986E-1,-1.3170508E-1,-2.7755275E-1,-6.52938E-2,-2.4660358E-1,-1.8974441E-1,-4.5634918E-2,-2.7728003E-1,-3.3390868E-1,-1.0248091E-2,-2.0525053E-1,-7.8843795E-2,3.0305503E-2,-3.4216106E-1,-8.218415E-2,-2.4357511E-1,-1.2595063E-1],"categories":[],"categories_nodes":[],"categories_segments":[],"categories_sizes":[],"default_left":[0,0,0,0,0,0,0,0,0,0,0,0,0,0,0,0,0,0,0,0,0,0,0,0,0,0,0,0,0,0,0,0,0,0,0,0,0,0,0,0,0,0,0,0,0,0,0,0,0,0,0,0,0,0,0,0,0,0,0,0,0,0,0,0,0,0,0,0,0,0,0,0,0,0,0,0,0,0,0,0,0,0,0,0,0,0,0,0,0,0,0,0,0,0,0,0,0,0,0,0,0,0,0,0,0,0,0,0,0,0,0],"id":0,"left_children":[1,3,5,7,9,11,13,15,17,19,21,23,25,27,29,31,33,35,37,-1,39,41,43,45,47,49,51,53,55,57,59,61,-1,63,65,67,69,71,73,-1,75,77,79,81,-1,83,85,87,89,-1,91,93,95,97,99,-1,101,103,105,107,109,-1,-1,-1,-1,-1,-1,-1,-1,-1,-1,-1,-1,-1,-1,-1,-1,-1,-1,-1,-1,-1,-1,-1,-1,-1,-1,-1,-1,-1,-1,-1,-1,-1,-1,-1,-1,-1,-1,-1,-1,-1,-1,-1,-1,-1,-1,-1,-1,-1,-1],"loss_changes":[1.3622583E3,1.1919092E2,7.9333374E2,1.7275305E2,1.9892578E1,5.153601E1,4.539151E2,2.0355957E1,5.4852745E1,1.9836426E0,5.5996704E1,4.0912018E1,7.9691772E0,4.187097E1,1.7042949E2,6.383545E0,6.2410736E0,8.020714E0,1.363536E1,0E0,9.0722656E-1,5.470868E1,3.937317E0,1.0326141E1,2.7541447E1,3.2485962E0,9.149065E0,4.3049133E1,4.9644775E0,1.4210114E2,4.771103E0,4.656494E0,0E0,5.743389E0,4.1760406E0,5.1662064E0,2.5369895E0,7.852582E0,2.5367756E0,0E0,4.427002E0,2.1157227E0,9.446907E0,2.021196E1,0E0,9.6043396E-1,4.0094147E0,4.0949793E0,2.810341E0,0E0,2.2764893E0,5.8362756E0,1.5101681E0,5.3356323E0,5.544853E0,0E0,2.2744446E0,1.7246193E1,8.395684E1,2.7370605E0,1.2426376E0,0E0,0E0,0E0,0E0,0E0,0E0,0E0,0E0,0E0,0E0,0E0,0E0,0E0,0E0,0E0,0E0,0E0,0E0,0E0,0E0,0E0,0E0,0E0,0E0,0E0,0E0,0E0,0E0,0E0,0E0,0E0,0E0,0E0,0E0,0E0,0E0,0E0,0E0,0E0,0E0,0E0,0E0,0E0,0E0,0E0,0E0,0E0,0E0,0E0,0E0],"parents":[2147483647,0,0,1,1,2,2,3,3,4,4,5,5,6,6,7,7,8,8,9,9,10,10,11,11,12,12,13,13,14,14,15,15,16,16,17,17,18,18,20,20,21,21,22,22,23,23,24,24,25,25,26,26,27,27,28,28,29,29,30,30,31,31,33,33,34,34,35,35,36,36,37,37,38,38,40,40,41,41,42,42,43,43,45,45,46,46,47,47,48,48,50,50,51,51,52,52,53,53,54,54,56,56,57,57,58,58,59,59,60,60],"right_children":[2,4,6,8,10,12,14,16,18,20,22,24,26,28,30,32,34,36,38,-1,40,42,44,46,48,50,52,54,56,58,60,62,-1,64,66,68,70,72,74,-1,76,78,80,82,-1,84,86,88,90,-1,92,94,96,98,100,-1,102,104,106,108,110,-1,-1,-1,-1,-1,-1,-1,-1,-1,-1,-1,-1,-1,-1,-1,-1,-1,-1,-1,-1,-1,-1,-1,-1,-1,-1,-1,-1,-1,-1,-1,-1,-1,-1,-1,-1,-1,-1,-1,-1,-1,-1,-1,-1,-1,-1,-1,-1,-1,-1],"split_conditions":[5.767542E4,2.6917646E4,2.6039428E4,2.7900662E4,3.6514004E4,1.9962578E4,2.725088E4,5.364776E4,3.1043012E4,1.653759E4,4.5001527E4,2.3168672E4,8.643583E4,1.7182059E4,6.2689727E4,4.2728008E4,1.3256779E4,3.8035363E4,5.4889348E4,-1.4731632E-2,3.2603129E4,2.5436643E4,3.0746498E4,7.023615E4,2.5488016E4,4.1004492E4,3.756434E4,2.4661096E4,5.6999812E4,2.7182574E4,6.8471516E4,2.2407795E4,2.6004702E-1,2.7129125E4,2.0533928E4,5.6207016E4,7.7153305E4,4.6748145E4,2.2289533E4,-3.502659E-1,3.3783242E4,1.6796062E4,2.379013E4,5.315002E4,-3.5453314E-1,8.1485923E3,8.4919875E4,5.9054332E4,9.633059E3,1.1182199E-1,7.89065E4,4.7224902E4,5.785178E4,5.3720034E3,8.0310766E4,1.8111622E-1,3.950557E4,6.996669E3,2.5645662E4,8.2460234E4,1.0664722E5,-3.391012E-1,-2.8105423E-1,-2.2150303E-1,-8.978188E-2,1.0354245E-1,-2.6369718E-1,-3.1054363E-1,-1.337162E-1,-9.4943546E-2,3.498541E-1,-1.5178226E-1,-2.6210856E-2,1.1182199E-1,-2.8664297E-1,-2.652169E-1,-3.5211083E-1,-2.338901E-1,-3.400343E-1,9.361315E-2,-1.5097183E-1,-3.4750375E-1,-1.2401625E-1,-2.0107542E-1,-3.145184E-1,9.3069814E-2,-2.2644243E-1,-1.2079314E-1,-3.495781E-2,1.1182199E-1,-3.0410162E-1,-3.4890032E-1,-2.9709587E-1,-2.0739979E-1,4.2804986E-1,-1.3170508E-1,-2.7755275E-1,-6.52938E-2,-2.4660358E-1,-1.8974441E-1,-4.5634918E-2,-2.7728003E-1,-3.3390868E-1,-1.0248091E-2,-2.0525053E-1,-7.8843795E-2,3.0305503E-2,-3.4216106E-1,-8.218415E-2,-2.4357511E-1,-1.2595063E-1],"split_indices":[14,0,3,9,9,10,4,14,4,10,0,3,14,2,0,6,0,9,2,0,9,4,11,14,7,8,13,4,10,9,9,9,0,6,11,14,7,14,0,0,0,8,12,9,0,10,5,11,10,0,14,6,9,2,7,0,8,0,1,14,1,0,0,0,0,0,0,0,0,0,0,0,0,0,0,0,0,0,0,0,0,0,0,0,0,0,0,0,0,0,0,0,0,0,0,0,0,0,0,0,0,0,0,0,0,0,0,0,0,0,0],"split_type":[0,0,0,0,0,0,0,0,0,0,0,0,0,0,0,0,0,0,0,0,0,0,0,0,0,0,0,0,0,0,0,0,0,0,0,0,0,0,0,0,0,0,0,0,0,0,0,0,0,0,0,0,0,0,0,0,0,0,0,0,0,0,0,0,0,0,0,0,0,0,0,0,0,0,0,0,0,0,0,0,0,0,0,0,0,0,0,0,0,0,0,0,0,0,0,0,0,0,0,0,0,0,0,0,0,0,0,0,0,0,0],"sum_hessian":[1.358489E4,4.0884858E3,9.496404E3,1.6431471E3,2.4453386E3,1.4888232E3,8.007581E3,9.707045E2,6.7244257E2,1.0783656E3,1.3669731E3,8.3349524E2,6.5532794E2,9.176054E2,7.0899756E3,6.6351953E2,3.0718497E2,1.22581436E2,5.498611E2,1.7553427E0,1.0766102E3,5.9125793E2,7.757152E2,5.576139E2,2.7588138E2,6.121758E2,4.3152176E1,5.383051E2,3.793003E2,6.9198535E3,1.7012196E2,6.624956E2,1.0239499E0,1.2740862E2,1.7977635E2,1.1950958E2,3.0718498E0,5.260177E2,2.3843405E1,8.008751E2,2.7573508E2,2.3565475E2,3.5560318E2,2.2263597E2,5.530792E2,2.3448453E2,3.2312933E2,2.156146E2,6.0266766E1,1.0239499E0,6.111518E2,3.8032427E0,3.9348934E1,3.2254422E2,2.1576088E2,1.3165071E0,3.779838E2,3.4550995E2,6.5743438E3,1.1175682E2,5.8365147E1,4.1952692E2,2.4296869E2,7.4748344E1,5.2660282E1,2.340457E0,1.774359E2,9.946942E1,2.0040163E1,1.4627856E0,1.6090641E0,4.8564484E1,4.7745322E2,1.0239499E0,2.2819456E1,1.07953575E2,1.6778151E2,2.9255713E1,2.0639905E2,1.418902E1,3.4141415E2,1.7480289E2,4.7833088E1,1.4042742E1,2.2044179E2,3.0718498E0,3.200575E2,7.91367E1,1.3647789E2,1.0239499E0,5.9242817E1,4.5200076E2,1.5915108E2,1.3165071E0,2.4867356E0,1.2141121E1,2.7207811E1,1.623692E1,3.063073E2,2.6768976E1,1.889919E2,2.2219713E2,1.5578667E2,4.7394253E1,2.981157E2,7.1018243E2,5.864161E3,1.0722218E2,4.5346355E0,4.4029846E1,1.4335299E1],"tree_param":{"num_deleted":"0","num_feature":"15","num_nodes":"111","size_leaf_vector":"1"}},{"base_weights":[-3.2809964E-1,-7.939955E-1,-1.6063407E-1,-6.0340935E-1,-9.5181566E-1,-8.0193037E-1,-7.075904E-2,-9.042488E-1,-2.951156E-1,-1.0711015E0,-8.581483E-1,-5.817093E-1,-9.5084447E-1,-6.221721E-1,-6.343896E-3,-9.753674E-1,-6.115314E-1,-8.2844603E-1,-1.8440212E-1,1.14596635E-1,-1.0734429E0,-5.9523827E-1,-1.0468167E0,-6.882336E-1,-2.6224378E-1,-4.9155447E-1,-9.880747E-1,-4.4552228E-1,-9.0990204E-1,1.1448327E-2,-8.839959E-1,-1.0289918E0,-8.6284494E-1,8.3102155E-1,-6.4696115E-1,-8.6389625E-1,4.0002507E-1,-1.0043867E0,-1.4806247E-1,-1.0757899E0,-1.183431E-2,-1.0124226E0,-3.4231833E-1,-8.989333E-1,-3.3243093E-1,-8.231261E-1,-4.9815348E-1,-1.1245827E-1,-8.0316734E-1,9.9155277E-1,-5.930122E-1,-8.82799E-1,-1.0786182E0,-6.589398E-1,-1.4016764E-1,2.3111886E-1,-9.198396E-1,-3.9146942E-1,4.6745565E-2,-1.0253291E0,-6.1364967E-1,-3.105117E-1,-1.1336703E-1,-1.416098E-1,-2.7341428E-1,4.924152E-3,4.157717E-1,-1.6217482E-1,-2.414719E-1,-2.8683004E-1,-1.7567797E-1,-3.3205557E-1,-1.4804366E-1,-1.2681715E-4,-8.0281936E-2,-2.5611436E-1,-3.2617214E-1,-1.041419E-1,-3.131355E-1,-1.3934962E-1,-2.9264556E-2,-3.2557377E-1,-9.489117E-2,-1.6106352E-1,-3.021204E-1,2.2873819E-1,-1.5675095E-1,-4.564462E-2,4.951877E-1,-2.7290456E-2,-2.8831983E-1,2.7701188E-2,4.625902E-1,-2.9728085E-1,-1.079661E-1,-3.0303854E-1,-2.0606531E-1,-3.3412915E-1,-2.5837344E-1,-2.4322851E-1,-1.4992961E-1,-1.953245E-1,-2.0712314E-2,-1.0181275E-1,2.4264698E-1,-2.5073704E-1,-3.10066E-1,-5.2453365E-2,-1.829566E-1,-6.796324E-2,2.4330651E-2,4.3426876E-4,-3.1624055E-1,-1.5272109E-1,-2.915073E-1],"categories":[],"categories_nodes":[],"categories_segments":[],"categories_sizes":[],"default_left":[0,0,0,0,0,0,0,0,0,0,0,0,0,0,0,0,0,0,0,0,0,0,0,0,0,0,0,0,0,0,0,0,0,0,0,0,0,0,0,0,0,0,0,0,0,0,0,0,0,0,0,0,0,0,0,0,0,0,0,0,0,0,0,0,0,0,0,0,0,0,0,0,0,0,0,0,0,0,0,0,0,0,0,0,0,0,0,0,0,0,0,0,0,0,0,0,0,0,0,0,0,0,0,0,0,0,0,0,0,0,0,0,0,0,0],"id":1,"left_children":[1,3,5,7,9,11,13,15,17,19,21,23,25,27,29,31,33,35,37,-1,39,41,43,45,47,49,51,53,55,57,59,61,63,65,67,69,-1,71,73,75,-1,77,79,81,-1,83,85,87,89,91,93,95,97,99,101,103,105,107,109,111,113,-1,-1,-1,-1,-1,-1,-1,-1,-1,-1,-1,-1,-1,-1,-1,-1,-1,-1,-1,-1,-1,-1,-1,-1,-1,-1,-1,-1,-1,-1,-1,-1,-1,-1,-1,-1,-1,-1,-1,-1,-1,-1,-1,-1,-1,-1,-1,-1,-1,-1,-1,-1,-1,-1],"loss_changes":[9.791116E2,9.923486E1,5.321354E2,1.3939563E2,1.9342773E1,3.666449E1,2.8769226E2,1.5259338E1,4.384855E1,3.1101074E0,5.0013245E1,1.5487488E1,1.1064758E1,4.265625E1,1.1327615E2,2.7994385E0,8.283764E0,1.0947487E1,1.827769E1,0E0,1.8809814E0,4.4900116E1,4.37854E0,8.427155E0,9.36873E0,8.508794E0,4.9943237E0,3.4244194E1,3.856018E0,1.011409E2,4.8781433E0,1.2179565E0,3.4284515E0,1.8173449E0,2.0597992E0,2.6825943E0,0E0,8.185196E-1,1.0471458E1,1.0826416E0,0E0,3.0040283E0,7.983879E0,1.9092804E1,0E0,9.993195E0,4.8675766E0,6.730476E0,2.7413235E0,1.711014E0,4.2719135E0,6.639267E0,1.5686035E0,7.0830383E0,7.878105E0,1.4522499E0,2.1826172E0,2.6992699E1,6.141058E1,2.7570267E0,1.4514523E0,0E0,0E0,0E0,0E0,0E0,0E0,0E0,0E0,0E0,0E0,0E0,0E0,0E0,0E0,0E0,0E0,0E0,0E0,0E0,0E0,0E0,0E0,0E0,0E0,0E0,0E0,0E0,0E0,0E0,0E0,0E0,0E0,0E0,0E0,0E0,0E0,0E0,0E0,0E0,0E0,0E0,0E0,0E0,0E0,0E0,0E0,0E0,0E0,0E0,0E0,0E0,0E0,0E0,0E0],"parents":[2147483647,0,0,1,1,2,2,3,3,4,4,5,5,6,6,7,7,8,8,9,9,10,10,11,11,12,12,13,13,14,14,15,15,16,16,17,17,18,18,20,20,21,21,22,22,23,23,24,24,25,25,26,26,27,27,28,28,29,29,30,30,31,31,32,32,33,33,34,34,35,35,37,37,38,38,39,39,41,41,42,42,43,43,45,45,46,46,47,47,48,48,49,49,50,50,51,51,52,52,53,53,54,54,55,55,56,56,57,57,58,58,59,59,60,60],"right_children":[2,4,6,8,10,12,14,16,18,20,22,24,26,28,30,32,34,36,38,-1,40,42,44,46,48,50,52,54,56,58,60,62,64,66,68,70,-1,72,74,76,-1,78,80,82,-1,84,86,88,90,92,94,96,98,100,102,104,106,108,110,112,114,-1,-1,-1,-1,-1,-1,-1,-1,-1,-1,-1,-1,-1,-1,-1,-1,-1,-1,-1,-1,-1,-1,-1,-1,-1,-1,-1,-1,-1,-1,-1,-1,-1,-1,-1,-1,-1,-1,-1,-1,-1,-1,-1,-1,-1,-1,-1,-1,-1,-1,-1,-1,-1,-1],"split_conditions":[5.7368543E4,2.8412688E4,2.5067148E4,2.6625287E4,3.7379934E4,1.7483094E4,2.7513467E4,5.4837082E4,3.0206213E4,1.653759E4,4.5001527E4,2.3498102E4,9.331337E3,1.7443785E4,6.2689727E4,5.0890957E4,4.1981094E3,7.299514E4,3.4583035E4,1.14596635E-1,8.614528E4,2.5436643E4,3.0746498E4,2.5645662E4,3.734662E4,1.24677705E4,2.9061594E4,2.4911336E4,5.6999812E4,2.9434879E4,6.8471516E4,3.969923E4,1.2206721E4,5.672727E4,2.389739E4,5.52719E4,4.0002507E-1,5.602066E4,1.786104E4,1.082139E4,-1.183431E-2,7.39337E4,4.5062508E4,5.315002E4,-3.3243093E-1,1.4475469E4,6.359594E3,4.7224902E4,2.3797781E4,2.441727E4,2.1720664E4,6.63856E4,7.915784E4,2.2096984E4,7.995203E4,4.490382E4,3.950557E4,1.1848606E4,2.5645662E4,3.2672562E4,7.141011E4,-3.105117E-1,-1.1336703E-1,-1.416098E-1,-2.7341428E-1,4.924152E-3,4.157717E-1,-1.6217482E-1,-2.414719E-1,-2.8683004E-1,-1.7567797E-1,-3.3205557E-1,-1.4804366E-1,-1.2681715E-4,-8.0281936E-2,-2.5611436E-1,-3.2617214E-1,-1.041419E-1,-3.131355E-1,-1.3934962E-1,-2.9264556E-2,-3.2557377E-1,-9.489117E-2,-1.6106352E-1,-3.021204E-1,2.2873819E-1,-1.5675095E-1,-4.564462E-2,4.951877E-1,-2.7290456E-2,-2.8831983E-1,2.7701188E-2,4.625902E-1,-2.9728085E-1,-1.079661E-1,-3.0303854E-1,-2.0606531E-1,-3.3412915E-1,-2.5837344E-1,-2.4322851E-1,-1.4992961E-1,-1.953245E-1,-2.0712314E-2,-1.0181275E-1,2.4264698E-1,-2.5073704E-1,-3.10066E-1,-5.2453365E-2,-1.829566E-1,-6.796324E-2,2.4330651E-2,4.3426876E-4,-3.1624055E-1,-1.5272109E-1,-2.915073E-1],"split_indices":[14,0,3,9,9,7,4,14,4,10,0,3,10,2,0,14,0,3,3,0,1,4,11,1,13,13,13,4,10,9,9,6,8,14,13,14,0,14,0,6,0,3,9,9,0,10,7,6,3,3,3,14,14,4,7,6,8,0,1,10,0,0,0,0,0,0,0,0,0,0,0,0,0,0,0,0,0,0,0,0,0,0,0,0,0,0,0,0,0,0,0,0,0,0,0,0,0,0,0,0,0,0,0,0,0,0,0,0,0,0,0,0,0,0,0],"split_type":[0,0,0,0,0,0,0,0,0,0,0,0,0,0,0,0,0,0,0,0,0,0,0,0,0,0,0,0,0,0,0,0,0,0,0,0,0,0,0,0,0,0,0,0,0,0,0,0,0,0,0,0,0,0,0,0,0,0,0,0,0,0,0,0,0,0,0,0,0,0,0,0,0,0,0,0,0,0,0,0,0,0,0,0,0,0,0,0,0,0,0,0,0,0,0,0,0,0,0,0,0,0,0,0,0,0,0,0,0,0,0,0,0,0,0],"sum_hessian":[1.2549889E4,3.3172966E3,9.232593E3,1.5048453E3,1.8124512E3,1.1338894E3,8.098703E3,7.606522E2,7.441932E2,7.9261584E2,1.0198354E3,4.5940543E2,6.7448395E2,8.462123E2,7.2524907E3,6.100921E2,1.5056012E2,1.2681506E2,6.173781E2,1.0142477E0,7.916016E2,4.2782077E2,5.920146E2,3.4365945E2,1.1574598E2,5.1639393E1,6.2284454E2,5.258926E2,3.203197E2,7.109353E3,1.4313759E2,4.076671E2,2.0242499E2,3.0708861E0,1.4748924E2,1.2535981E2,1.4552568E0,2.5069077E1,5.92309E2,7.8976855E2,1.8330343E0,1.6034059E2,2.674802E2,1.7804987E2,4.1396472E2,1.9906229E2,1.4459718E2,9.1591545E1,2.4154434E1,2.7446778E0,4.8894714E1,2.9296338E2,3.2988116E2,3.0886423E2,2.1702834E2,2.573532E0,3.177462E2,5.718297E2,6.5375234E3,9.216328E1,5.097432E1,4.0333145E2,4.3356614E0,2.3547287E1,1.788777E2,1.6614075E0,1.4094787E0,9.077412E1,5.6715115E1,9.233355E1,3.3026257E1,1.990965E1,5.159425E0,2.654613E2,3.2684775E2,4.242967E1,7.473389E2,7.7617254E0,1.5257886E2,1.7782071E2,8.9659485E1,1.3425522E2,4.3794643E1,7.940778E1,1.196545E2,2.1656518E0,1.4243152E2,9.046862E1,1.1229223E0,4.6693835E0,1.948505E1,1.4855254E0,1.2591523E0,1.6862045E1,3.203267E1,1.7504306E2,1.1792033E2,2.8041852E2,4.9462643E1,1.55988E2,1.528762E2,2.5524904E1,1.9150343E2,1.502413E0,1.0711191E0,1.8750499E2,1.3024118E2,2.8797626E2,2.8385342E2,7.294577E2,5.808066E3,2.5409706E0,8.962231E1,4.132548E1,9.648836E0],"tree_param":{"num_deleted":"0","num_feature":"15","num_nodes":"115","size_leaf_vector":"1"}},{"base_weights":[-2.5777647E-1,-7.326191E-1,-1.320925E-1,-5.681814E-1,-9.022185E-1,-6.6199046E-1,-5.8315914E-2,-8.4988004E-1,-2.4505472E-1,-1.0216156E0,-8.1107163E-1,-4.8872623E-1,-9.1920173E-1,-6.805907E-1,-1.4056376E-2,-6.535026E-1,-9.3760335E-1,-8.555936E-1,-1.04887165E-1,-4.4778797E-1,-1.0264431E0,-5.5786186E-1,-9.978759E-1,-7.738888E-1,-3.4117672E-1,-9.659651E-1,-4.9978742E-1,-5.8156437E-1,-8.908166E-1,2.691187E-4,-8.1125444E-1,-8.3192587E-1,-4.3535614E-1,-9.7156227E-1,-6.793727E-1,-8.890193E-1,2.896149E-1,1.2314998E0,-1.3234903E-1,9.818193E-2,-2.5731647E-1,-6.3034093E-1,-3.0929905E-1,-9.776446E-1,-3.2679E-1,-8.557743E-1,-3.2401198E-1,-8.9905936E-1,-6.468833E-1,-5.5357033E-1,-1.17730744E-1,1.6676791E-1,-9.7260064E-1,-3.6890405E-1,-3.024252E-1,-7.226632E-1,-4.3845242E-1,-1.040888E0,-7.538152E-1,-4.271943E-1,2.0192124E-2,-9.8046684E-1,-5.293026E-1,-2.6679462E-1,-5.5194702E-2,-2.9420424E-1,-1.02011584E-1,-2.6677135E-1,-3.1516665E-1,9.196696E-3,-2.214808E-1,-2.7376056E-1,9.754684E-2,5.222547E-1,-1.3514864E-1,-1.20522855E-2,-1.24714464E-1,-2.9054475E-1,2.8009692E-1,-3.291215E-2,-2.9827613E-1,1.0429978E-1,-1.1646015E-1,-2.77439E-1,6.967665E-2,-3.054773E-1,-2.2269714E-1,-2.7733693E-1,-1.0709402E-1,-2.0934135E-1,-1.2560332E-1,1.5954784E-1,-4.8403874E-2,-3.1702536E-1,-2.5707802E-1,-1.3968116E-1,1.6773969E-1,-2.7787858E-1,-1.7331621E-1,-1.4596564E-1,-8.516161E-3,-3.2296848E-1,-9.9810466E-2,9.074351E-2,-2.362482E-1,8.086184E-2,-1.4151558E-1,-6.877011E-2,1.6659966E-2,3.406966E-4,-3.0349436E-1,-1.7195529E-1,2.1643306E-1],"categories":[],"categories_nodes":[],"categories_segments":[],"categories_sizes":[],"default_left":[0,0,0,0,0,0,0,0,0,0,0,0,0,0,0,0,0,0,0,0,0,0,0,0,0,0,0,0,0,0,0,0,0,0,0,0,0,0,0,0,0,0,0,0,0,0,0,0,0,0,0,0,0,0,0,0,0,0,0,0,0,0,0,0,0,0,0,0,0,0,0,0,0,0,0,0,0,0,0,0,0,0,0,0,0,0,0,0,0,0,0,0,0,0,0,0,0,0,0,0,0,0,0,0,0,0,0,0,0,0,0,0,0],"id":2,"left_children":[1,3,5,7,9,11,13,15,17,19,21,23,25,27,29,31,33,35,37,39,41,43,45,47,49,51,53,55,57,59,61,63,65,67,69,71,-1,73,75,-1,-1,77,-1,79,81,83,-1,85,87,89,91,-1,93,95,-1,97,99,101,103,105,107,109,111,-1,-1,-1,-1,-1,-1,-1,-1,-1,-1,-1,-1,-1,-1,-1,-1,-1,-1,-1,-1,-1,-1,-1,-1,-1,-1,-1,-1,-1,-1,-1,-1,-1,-1,-1,-1,-1,-1,-1,-1,-1,-1,-1,-1,-1,-1,-1,-1,-1,-1],"loss_changes":[6.9896185E2,6.7849976E1,3.620956E2,1.1332446E2,1.2284973E1,4.9997864E1,2.2396344E2,1.0859558E1,4.974458E1,9.7473145E-1,3.1995361E1,2.8284119E1,8.43103E0,1.0723114E1,8.671649E1,7.7698517E0,3.3564453E0,7.4677887E0,1.7585747E1,2.2168493E0,2.7490234E-1,2.824067E1,3.684784E0,3.0838776E0,2.1240192E1,4.658905E0,2.7989473E0,7.153511E0,2.7316437E0,6.354198E1,5.876045E0,4.0691986E0,4.661642E0,1.6830444E0,2.387766E0,3.356163E0,0E0,9.056912E0,1.2156992E1,0E0,0E0,5.3468757E0,0E0,1.3905945E0,8.062666E0,1.1437721E1,0E0,1.3656921E0,9.166298E0,4.1805115E0,6.3197374E0,0E0,3.0504456E0,3.8032598E0,0E0,4.9166336E0,3.6589432E0,1.637497E0,3.547802E0,1.0434399E1,6.285382E1,2.5291443E0,3.2920027E0,0E0,0E0,0E0,0E0,0E0,0E0,0E0,0E0,0E0,0E0,0E0,0E0,0E0,0E0,0E0,0E0,0E0,0E0,0E0,0E0,0E0,0E0,0E0,0E0,0E0,0E0,0E0,0E0,0E0,0E0,0E0,0E0,0E0,0E0,0E0,0E0,0E0,0E0,0E0,0E0,0E0,0E0,0E0,0E0,0E0,0E0,0E0,0E0,0E0,0E0],"parents":[2147483647,0,0,1,1,2,2,3,3,4,4,5,5,6,6,7,7,8,8,9,9,10,10,11,11,12,12,13,13,14,14,15,15,16,16,17,17,18,18,19,19,20,20,21,21,22,22,23,23,24,24,25,25,26,26,27,27,28,28,29,29,30,30,31,31,32,32,33,33,34,34,35,35,37,37,38,38,41,41,43,43,44,44,45,45,47,47,48,48,49,49,50,50,52,52,53,53,55,55,56,56,57,57,58,58,59,59,60,60,61,61,62,62],"right_children":[2,4,6,8,10,12,14,16,18,20,22,24,26,28,30,32,34,36,38,40,42,44,46,48,50,52,54,56,58,60,62,64,66,68,70,72,-1,74,76,-1,-1,78,-1,80,82,84,-1,86,88,90,92,-1,94,96,-1,98,100,102,104,106,108,110,112,-1,-1,-1,-1,-1,-1,-1,-1,-1,-1,-1,-1,-1,-1,-1,-1,-1,-1,-1,-1,-1,-1,-1,-1,-1,-1,-1,-1,-1,-1,-1,-1,-1,-1,-1,-1,-1,-1,-1,-1,-1,-1,-1,-1,-1,-1,-1,-1,-1,-1],"split_conditions":[5.602066E4,3.0707742E4,2.630852E4,2.7900662E4,3.822332E4,1.9962578E4,2.5153975E4,1.6320093E4,3.0206213E4,1.3178246E4,4.5847207E4,6.947188E4,8.590475E4,2.0118445E4,6.2689727E4,2.2787986E4,3.787265E4,4.766693E4,2.9011375E4,4.766018E4,7.673871E3,2.5436643E4,3.2655959E4,2.1720664E4,2.2476615E4,4.1004492E4,2.8233486E4,2.2096984E4,6.1634684E4,2.6625287E4,6.791511E4,5.52719E4,4.1448023E4,2.273603E4,3.395476E4,3.9728227E4,2.896149E-1,7.905637E4,3.0902557E4,9.818193E-2,-2.5731647E-1,3.3555086E4,-3.0929905E-1,1.5537542E4,1.6403908E4,4.741375E4,-3.2401198E-1,2.6596504E4,7.954125E4,2.5645662E4,1.6997068E4,1.6676791E-1,2.5645662E4,2.741104E4,-3.024252E-1,2.4773566E4,6.861255E4,4.0495492E4,6.1872426E4,4.9363057E3,3.0639229E4,3.2672562E4,8.107895E4,-2.6679462E-1,-5.5194702E-2,-2.9420424E-1,-1.02011584E-1,-2.6677135E-1,-3.1516665E-1,9.196696E-3,-2.214808E-1,-2.7376056E-1,9.754684E-2,5.222547E-1,-1.3514864E-1,-1.20522855E-2,-1.24714464E-1,-2.9054475E-1,2.8009692E-1,-3.291215E-2,-2.9827613E-1,1.0429978E-1,-1.1646015E-1,-2.77439E-1,6.967665E-2,-3.054773E-1,-2.2269714E-1,-2.7733693E-1,-1.0709402E-1,-2.0934135E-1,-1.2560332E-1,1.5954784E-1,-4.8403874E-2,-3.1702536E-1,-2.5707802E-1,-1.3968116E-1,1.6773969E-1,-2.7787858E-1,-1.7331621E-1,-1.4596564E-1,-8.516161E-3,-3.2296848E-1,-9.9810466E-2,9.074351E-2,-2.362482E-1,8.086184E-2,-1.4151558E-1,-6.877011E-2,1.6659966E-2,3.406966E-4,-3.0349436E-1,-1.7195529E-1,2.1643306E-1],"split_indices":[14,0,3,9,9,10,4,0,4,2,0,14,14,2,0,9,6,13,5,6,6,4,11,3,3,8,10,4,14,9,9,14,3,0,13,9,0,7,8,0,0,9,0,8,2,4,0,6,5,1,1,0,1,10,0,5,14,5,14,0,4,10,14,0,0,0,0,0,0,0,0,0,0,0,0,0,0,0,0,0,0,0,0,0,0,0,0,0,0,0,0,0,0,0,0,0,0,0,0,0,0,0,0,0,0,0,0,0,0,0,0,0,0],"split_type":[0,0,0,0,0,0,0,0,0,0,0,0,0,0,0,0,0,0,0,0,0,0,0,0,0,0,0,0,0,0,0,0,0,0,0,0,0,0,0,0,0,0,0,0,0,0,0,0,0,0,0,0,0,0,0,0,0,0,0,0,0,0,0,0,0,0,0,0,0,0,0,0,0,0,0,0,0,0,0,0,0,0,0,0,0,0,0,0,0,0,0,0,0,0,0,0,0,0,0,0,0,0,0,0,0,0,0,0,0,0,0,0,0],"sum_hessian":[1.1712428E4,2.450278E3,9.262149E3,1.246279E3,1.203999E3,1.1309762E3,8.1311733E3,6.649512E2,5.8132794E2,5.168056E2,6.871935E2,6.774967E2,4.5347952E2,5.3897546E2,7.5921978E3,2.0792957E2,4.570216E2,1.07589165E2,4.7373877E2,5.0937877E0,5.1171185E2,2.934346E2,3.9375885E2,2.2957056E2,4.4792618E2,4.0681757E2,4.6661957E1,3.689493E2,1.7002615E2,7.4591577E3,1.3303996E2,1.128309E2,9.509866E1,4.014642E2,5.5557407E1,1.0615243E2,1.4367357E0,8.656173E0,4.6508258E2,1.831886E0,3.2619016E0,7.4005404E0,5.043113E2,1.0303055E2,1.9040405E2,1.4844316E2,2.4531567E2,1.12558975E2,1.1701158E2,2.2888507E2,2.1904109E2,1.4067458E0,4.0541083E2,3.8479485E1,8.182473E0,1.8374213E2,1.852072E2,7.7993965E1,9.203219E1,3.3126077E2,7.127897E3,8.159412E1,5.1445847E1,1.033082E2,9.522706E0,1.2767202E1,8.233147E1,2.0258884E2,1.9887538E2,4.2922044E0,5.12652E1,1.0437927E2,1.7731569E0,6.6173015E0,2.0388713E0,3.517917E2,1.132909E2,6.3980293E0,1.0025108E0,2.0774019E0,1.0095314E2,1.5500849E1,1.7490321E2,1.3972906E2,8.714096E0,6.081342E1,5.1745556E1,5.8658806E1,5.835278E1,1.0859582E2,1.2028926E2,1.30781E1,2.05963E2,2.2997383E2,1.75437E2,3.5299618E1,3.1798685E0,7.4168365E1,1.0957375E2,1.6559657E2,1.9610617E1,7.3758354E1,4.235612E0,2.597072E0,8.943511E1,1.9593897E1,3.1166687E2,8.8392914E2,6.243968E3,2.5417402E0,7.9052376E1,5.022544E1,1.2204041E0],"tree_param":{"num_deleted":"0","num_feature":"15","num_nodes":"113","size_leaf_vector":"1"}},{"base_weights":[-2.0029753E-1,-6.384867E-1,-9.978817E-2,-9.048439E-1,-5.227629E-1,-6.842802E-1,-5.391078E-2,-1.0526814E0,-8.276237E-1,-3.658121E-1,-7.955761E-1,-4.963927E-1,-8.481628E-1,-5.806212E-1,-2.3091163E-2,-1.261657E-2,-3.1719303E-1,-9.905068E-1,-6.370842E-1,-9.034842E-1,-2.5442937E-1,-4.6060038E-1,-9.215318E-1,-8.9318544E-1,-4.0661392E-1,-1.0168476E0,-6.7159456E-1,-5.179012E-1,-9.496362E-1,1.1087817E-2,-3.0215916E-1,-3.847655E-2,-9.945296E-1,-4.5290285E-1,-3.0918333E-1,-4.291213E-1,-9.419299E-1,-6.3502413E-1,-1.13062166E-1,-9.2907476E-1,-1.096252E-1,-8.291775E-1,-1.0417506E0,-4.1950163E-1,-9.64056E-1,7.510715E-1,-4.2756903E-1,-7.4365455E-1,-3.151766E-1,-3.1283632E-1,-7.900292E-1,-6.991171E-1,-3.84949E-1,4.2115703E-2,-9.774508E-1,-2.4310395E-1,4.502278E-2,-6.538524E-1,-1.3529225E-1,-1.0418918E-1,-2.9951003E-1,-1.620078E-1,2.0463586E-1,-2.309091E-1,8.675787E-2,-1.9466008E-1,-3.0212587E-1,4.9914262E-1,-2.0068578E-1,-9.197211E-2,4.573314E-3,-9.920322E-2,-2.9516935E-1,-2.0485632E-1,3.8303744E-2,-2.5810555E-1,1.7945978E-1,-6.975819E-2,-3.1429285E-1,-2.827842E-1,3.365015E-1,-2.9430395E-1,-8.128077E-2,-5.77013E-2,5.150315E-1,-1.3281457E-1,3.3277792E-1,-4.5505747E-2,-2.507459E-1,5.772105E-1,-1.3329633E-1,-1.8409139E-1,-2.6876098E-1,-2.1433328E-1,2.4034901E-1,2.5737295E-2,-1.376202E-1,-2.9712015E-1,-9.545805E-2,-1.1415391E-2,-1.462752E-1,-1.5782787E-1,1.6016705E-2,-2.5196838E-1,-5.1834527E-2,-1.3363965E-1,-3.1367422E-3],"categories":[],"categories_nodes":[],"categories_segments":[],"categories_sizes":[],"default_left":[0,0,0,0,0,0,0,0,0,0,0,0,0,0,0,0,0,0,0,0,0,0,0,0,0,0,0,0,0,0,0,0,0,0,0,0,0,0,0,0,0,0,0,0,0,0,0,0,0,0,0,0,0,0,0,0,0,0,0,0,0,0,0,0,0,0,0,0,0,0,0,0,0,0,0,0,0,0,0,0,0,0,0,0,0,0,0,0,0,0,0,0,0,0,0,0,0,0,0,0,0,0,0,0,0,0,0],"id":3,"left_children":[1,3,5,7,9,11,13,15,17,19,21,23,25,27,29,-1,-1,31,33,35,37,39,41,43,45,47,49,51,53,55,57,-1,59,61,-1,63,65,67,69,71,73,75,77,79,81,83,85,87,-1,89,91,93,95,-1,97,99,101,103,105,-1,-1,-1,-1,-1,-1,-1,-1,-1,-1,-1,-1,-1,-1,-1,-1,-1,-1,-1,-1,-1,-1,-1,-1,-1,-1,-1,-1,-1,-1,-1,-1,-1,-1,-1,-1,-1,-1,-1,-1,-1,-1,-1,-1,-1,-1,-1,-1],"loss_changes":[4.870418E2,6.312805E1,2.4123419E2,6.24765E0,6.140097E1,1.9739685E1,1.3543289E2,9.391937E-1,1.222699E1,5.4654526E1,2.1740265E1,1.0589127E1,9.691086E0,1.0182465E1,7.519994E1,0E0,0E0,6.4094543E-1,1.3575722E1,2.4568481E0,4.0850204E1,2.3830269E1,3.363861E0,1.4718857E0,6.447941E0,8.427429E-1,7.1086426E0,9.281311E0,2.1321945E0,6.060369E1,5.0395493E1,0E0,2.0057678E-1,1.3595282E1,0E0,3.5492525E0,2.1015778E0,1.7162819E1,1.3804596E1,1.7154121E0,1.1560632E1,1.0314987E1,5.266113E-1,8.348941E0,2.9657745E-1,4.7514625E0,6.280113E0,1.116642E0,0E0,1.3978983E1,1.8679123E0,4.401619E0,8.058361E0,0E0,2.3371124E-1,4.146409E1,2.964249E1,2.4606361E1,2.2634861E1,0E0,0E0,0E0,0E0,0E0,0E0,0E0,0E0,0E0,0E0,0E0,0E0,0E0,0E0,0E0,0E0,0E0,0E0,0E0,0E0,0E0,0E0,0E0,0E0,0E0,0E0,0E0,0E0,0E0,0E0,0E0,0E0,0E0,0E0,0E0,0E0,0E0,0E0,0E0,0E0,0E0,0E0,0E0,0E0,0E0,0E0,0E0,0E0],"parents":[2147483647,0,0,1,1,2,2,3,3,4,4,5,5,6,6,7,7,8,8,9,9,10,10,11,11,12,12,13,13,14,14,17,17,18,18,19,19,20,20,21,21,22,22,23,23,24,24,25,25,26,26,27,27,28,28,29,29,30,30,32,32,33,33,35,35,36,36,37,37,38,38,39,39,40,40,41,41,42,42,43,43,44,44,45,45,46,46,47,47,49,49,50,50,51,51,52,52,54,54,55,55,56,56,57,57,58,58],"right_children":[2,4,6,8,10,12,14,16,18,20,22,24,26,28,30,-1,-1,32,34,36,38,40,42,44,46,48,50,52,54,56,58,-1,60,62,-1,64,66,68,70,72,74,76,78,80,82,84,86,88,-1,90,92,94,96,-1,98,100,102,104,106,-1,-1,-1,-1,-1,-1,-1,-1,-1,-1,-1,-1,-1,-1,-1,-1,-1,-1,-1,-1,-1,-1,-1,-1,-1,-1,-1,-1,-1,-1,-1,-1,-1,-1,-1,-1,-1,-1,-1,-1,-1,-1,-1,-1,-1,-1,-1,-1],"split_conditions":[5.602066E4,4.4032867E4,2.3498102E4,3.2102908E4,2.8576695E4,1.7843674E4,2.5153975E4,2.7631768E4,5.316034E4,2.43373E4,1.5092205E4,6.5469664E4,2.5983188E4,3.950557E4,5.759514E4,-1.261657E-2,-3.1719303E-1,3.296877E4,3.2331977E4,2.6904281E4,2.6625287E4,3.3815152E4,4.068183E4,1.937658E4,2.4473732E4,1.2690117E4,1.704752E4,6.1123844E4,1.3338889E4,3.0671293E4,6.462581E4,-3.847655E-2,4.1992793E4,5.366537E4,-3.0918333E-1,6.338521E4,1.3178246E4,1.3975993E4,3.4880992E4,3.2655959E4,5.821996E4,5.1780707E4,3.8424754E4,2.0422365E4,4.1764023E4,2.330258E4,1.0423095E5,3.894078E4,-3.151766E-1,7.915784E4,2.6676906E4,3.697146E4,5.7562906E4,4.2115703E-2,1.0941034E5,1.2157553E4,1.237923E4,8.812782E4,7.356556E4,-1.0418918E-1,-2.9951003E-1,-1.620078E-1,2.0463586E-1,-2.309091E-1,8.675787E-2,-1.9466008E-1,-3.0212587E-1,4.9914262E-1,-2.0068578E-1,-9.197211E-2,4.573314E-3,-9.920322E-2,-2.9516935E-1,-2.0485632E-1,3.8303744E-2,-2.5810555E-1,1.7945978E-1,-6.975819E-2,-3.1429285E-1,-2.827842E-1,3.365015E-1,-2.9430395E-1,-8.128077E-2,-5.77013E-2,5.150315E-1,-1.3281457E-1,3.3277792E-1,-4.5505747E-2,-2.507459E-1,5.772105E-1,-1.3329633E-1,-1.8409139E-1,-2.6876098E-1,-2.1433328E-1,2.4034901E-1,2.5737295E-2,-1.376202E-1,-2.9712015E-1,-9.545805E-2,-1.1415391E-2,-1.462752E-1,-1.5782787E-1,1.6016705E-2,-2.5196838E-1,-5.1834527E-2,-1.3363965E-1,-3.1367422E-3],"split_indices":[14,14,3,4,11,10,4,6,3,4,6,14,1,8,0,0,0,2,11,9,9,3,11,6,6,7,7,14,12,9,9,0,5,4,0,3,2,13,4,11,4,8,8,13,9,1,12,6,0,14,7,12,6,0,1,0,1,14,14,0,0,0,0,0,0,0,0,0,0,0,0,0,0,0,0,0,0,0,0,0,0,0,0,0,0,0,0,0,0,0,0,0,0,0,0,0,0,0,0,0,0,0,0,0,0,0,0],"split_type":[0,0,0,0,0,0,0,0,0,0,0,0,0,0,0,0,0,0,0,0,0,0,0,0,0,0,0,0,0,0,0,0,0,0,0,0,0,0,0,0,0,0,0,0,0,0,0,0,0,0,0,0,0,0,0,0,0,0,0,0,0,0,0,0,0,0,0,0,0,0,0,0,0,0,0,0,0,0,0,0,0,0,0,0,0,0,0,0,0,0,0,0,0,0,0,0,0,0,0,0,0,0,0,0,0,0,0],"sum_hessian":[1.1058996E4,2.0623684E3,8.996628E3,6.2257996E2,1.4397883E3,6.5374896E2,8.342879E3,2.0928096E2,4.1329898E2,9.154603E2,5.2432806E2,3.064454E2,3.4730353E2,4.601986E2,7.88268E3,1.0001199E0,2.0828084E2,2.2055692E2,1.9274207E2,1.558795E2,7.595809E2,1.4455223E2,3.7977582E2,5.489201E1,2.515534E2,1.7518309E2,1.7212045E2,3.953979E2,6.480071E1,7.0234414E3,8.5923895E2,1.17691E0,2.1938E2,1.3275838E2,5.998369E1,1.2598175E1,1.4328131E2,2.047777E2,5.5480316E2,6.120712E1,8.334511E1,2.1924496E2,1.6053085E2,8.044376E0,4.6847633E1,3.8529298E0,2.4770047E2,2.1790535E1,1.5339256E2,4.36224E1,1.2849805E2,1.6552553E2,2.2987236E2,1.5116982E0,6.3289017E1,8.2648016E2,6.1969614E3,2.7555447E2,5.8368445E2,1.8322681E0,2.1754774E2,1.2378127E2,8.977103E0,8.497641E0,4.1005344E0,2.8054619E1,1.152267E2,2.279663E0,2.0249803E2,2.2064207E2,3.3416107E2,5.7271047E0,5.548001E1,2.3851706E1,5.9493404E1,2.149477E2,4.2972646E0,1.4529291E0,1.5907791E2,6.295804E0,1.7485726E0,4.5323444E1,1.5241914E0,2.3540492E0,1.4988806E0,2.4598807E2,1.7124021E0,3.292012E0,1.8498522E1,1.6649231E0,4.1957478E1,5.073769E1,7.776035E1,1.643701E2,1.1554332E0,3.1126427E1,1.9874594E2,6.1577164E1,1.7118512E0,4.5011285E2,3.763673E2,8.8574814E1,6.108386E3,1.9817087E2,7.738359E1,1.6676517E2,4.169193E2],"tree_param":{"num_deleted":"0","num_feature":"15","num_nodes":"107","size_leaf_vector":"1"}},{"base_weights":[-1.5408573E-1,-5.877365E-1,-8.146457E-2,-8.374848E-1,-4.655737E-1,-4.9311316E-1,-3.7381463E-2,-1.0190898E0,-7.484919E-1,-3.7285E-1,-8.744549E-1,-3.349877E-1,-7.804216E-1,-4.825801E-1,-8.646689E-3,-4.7710773E-2,-3.0747125E-1,-9.379949E-1,-5.402833E-1,-8.592309E-1,-2.6671574E-1,-6.8778765E-1,-9.992906E-1,-6.2281996E-1,-2.0659779E-1,-9.19852E-1,-5.286443E-1,-7.173517E-1,-3.5127154E-1,8.565587E-3,-3.505261E-1,-2.9080713E-1,-9.472922E-1,-3.582408E-1,-2.9798284E-1,-5.179933E-1,-9.0968215E-1,-6.4666426E-1,-9.9677905E-2,-9.302217E-1,4.0114954E-1,-4.876995E-2,-1.0076292E0,-8.113755E-1,-5.2749276E-1,-3.6011276E-1,-7.494953E-2,1.1636953E-1,-9.3255234E-1,1.3753408E0,-5.875725E-1,1.1548939E0,-7.4660075E-1,-1.8925405E-1,-5.313542E-1,-1.3888448E-1,4.636274E-2,-6.9717294E-1,-1.7894095E-2,-2.1177556E-1,1.3571951E-1,-1.9365516E-2,-2.8569502E-1,-2.48581E-1,-4.5248795E-2,-2.1475253E-1,3.0182892E-1,-2.8156212E-1,-2.0546842E-1,-1.9848324E-1,1.6256085E-1,7.922526E-2,-4.580247E-2,1.1984051E-1,-2.8781593E-1,-1.3895869E-2,6.525836E-1,-1.7908786E-1,-3.070743E-1,7.532072E-2,-2.647328E-1,1.1368374E-1,-1.7771722E-1,-1.2606584E-1,6.2427106E-3,4.165919E-2,-6.1000716E-2,-1.8624541E-1,2.665804E-1,-2.9691955E-1,-2.223716E-1,1.1930223E-1,4.857946E-1,-2.7241084E-1,-1.3960098E-1,1.1146468E-1,4.176961E-1,-1.7625341E-1,-2.7296904E-1,-3.6383126E-2,-2.3020543E-1,-1.93206E-1,-4.6569362E-2,-1.4652123E-1,-2.87677E-2,-8.0044396E-2,1.8952632E-2,3.8900816E-1,-2.1489425E-1,-1.7580554E-1,1.883477E-2],"categories":[],"categories_nodes":[],"categories_segments":[],"categories_sizes":[],"default_left":[0,0,0,0,0,0,0,0,0,0,0,0,0,0,0,0,0,0,0,0,0,0,0,0,0,0,0,0,0,0,0,0,0,0,0,0,0,0,0,0,0,0,0,0,0,0,0,0,0,0,0,0,0,0,0,0,0,0,0,0,0,0,0,0,0,0,0,0,0,0,0,0,0,0,0,0,0,0,0,0,0,0,0,0,0,0,0,0,0,0,0,0,0,0,0,0,0,0,0,0,0,0,0,0,0,0,0,0,0,0,0],"id":4,"left_children":[1,3,5,7,9,11,13,15,17,19,21,23,25,27,29,-1,-1,31,33,35,37,39,41,43,45,47,49,51,53,55,57,59,61,63,-1,65,67,69,71,73,75,-1,77,79,81,83,85,87,89,91,93,95,97,99,101,103,105,107,109,-1,-1,-1,-1,-1,-1,-1,-1,-1,-1,-1,-1,-1,-1,-1,-1,-1,-1,-1,-1,-1,-1,-1,-1,-1,-1,-1,-1,-1,-1,-1,-1,-1,-1,-1,-1,-1,-1,-1,-1,-1,-1,-1,-1,-1,-1,-1,-1,-1,-1,-1,-1],"loss_changes":[3.3247687E2,4.5815796E1,1.6412804E2,7.2566223E0,3.8316544E1,3.9485626E1,1.04532646E2,6.3920593E-1,1.2781265E1,4.2749786E1,3.6858673E0,2.0790123E1,1.0390366E1,1.5020882E1,4.517955E1,0E0,0E0,7.7723694E-1,1.3071674E1,2.0885315E0,4.340266E1,2.1074738E1,6.054306E-1,2.7016296E0,7.914526E0,2.71492E0,1.3461529E1,1.0541061E1,9.226734E0,4.0747417E1,4.2421547E1,1.5289425E0,7.015228E-1,1.1359186E1,0E0,7.1953745E0,1.8890381E-1,4.070709E0,9.234565E0,2.882164E0,1.1991167E1,0E0,1.0282898E-1,4.4958267E0,7.195694E0,4.1562634E0,5.869854E0,2.4229116E0,1.4078827E0,2.3500681E-1,3.8900032E0,6.1356068E-2,4.002182E0,6.581044E0,6.2924004E0,2.2369694E1,3.065797E1,7.8055496E0,8.691656E0,0E0,0E0,0E0,0E0,0E0,0E0,0E0,0E0,0E0,0E0,0E0,0E0,0E0,0E0,0E0,0E0,0E0,0E0,0E0,0E0,0E0,0E0,0E0,0E0,0E0,0E0,0E0,0E0,0E0,0E0,0E0,0E0,0E0,0E0,0E0,0E0,0E0,0E0,0E0,0E0,0E0,0E0,0E0,0E0,0E0,0E0,0E0,0E0,0E0,0E0,0E0,0E0],"parents":[2147483647,0,0,1,1,2,2,3,3,4,4,5,5,6,6,7,7,8,8,9,9,10,10,11,11,12,12,13,13,14,14,17,17,18,18,19,19,20,20,21,21,22,22,23,23,24,24,25,25,26,26,27,27,28,28,29,29,30,30,31,31,32,32,33,33,35,35,36,36,37,37,38,38,39,39,40,40,42,42,43,43,44,44,45,45,46,46,47,47,48,48,49,49,50,50,51,51,52,52,53,53,54,54,55,55,56,56,57,57,58,58],"right_children":[2,4,6,8,10,12,14,16,18,20,22,24,26,28,30,-1,-1,32,34,36,38,40,42,44,46,48,50,52,54,56,58,60,62,64,-1,66,68,70,72,74,76,-1,78,80,82,84,86,88,90,92,94,96,98,100,102,104,106,108,110,-1,-1,-1,-1,-1,-1,-1,-1,-1,-1,-1,-1,-1,-1,-1,-1,-1,-1,-1,-1,-1,-1,-1,-1,-1,-1,-1,-1,-1,-1,-1,-1,-1,-1,-1,-1,-1,-1,-1,-1,-1,-1,-1,-1,-1,-1,-1,-1,-1,-1,-1,-1],"split_conditions":[5.4446258E4,4.4032867E4,2.630852E4,3.2102908E4,3.5471996E4,1.9962578E4,2.5681105E4,2.7763486E4,5.352173E4,2.4911336E4,4.068183E4,6.947188E4,7.89065E4,2.4086969E4,6.0199402E4,-4.7710773E-2,-3.0747125E-1,4.1992793E4,3.2331977E4,1.5041858E4,2.6625287E4,6.684446E4,3.8648266E4,4.8501902E4,2.2476615E4,4.1004492E4,8.845126E4,5.3720034E3,2.0946154E4,6.175475E4,1.0508542E5,3.4991062E4,4.9201406E4,3.0405379E4,-2.9798284E-1,8.116313E4,3.3205742E4,4.317019E4,1.5205105E4,3.1302873E4,5.0556652E4,-4.876995E-2,1.3223764E4,9.633059E3,1.2201534E4,4.081301E4,8.679109E3,2.325945E4,3.2956973E4,3.155689E4,2.4597451E4,8.485267E4,1.5518127E4,7.039288E4,2.4033584E4,3.6485742E4,2.300965E4,7.804154E3,6.75487E4,-2.1177556E-1,1.3571951E-1,-1.9365516E-2,-2.8569502E-1,-2.48581E-1,-4.5248795E-2,-2.1475253E-1,3.0182892E-1,-2.8156212E-1,-2.0546842E-1,-1.9848324E-1,1.6256085E-1,7.922526E-2,-4.580247E-2,1.1984051E-1,-2.8781593E-1,-1.3895869E-2,6.525836E-1,-1.7908786E-1,-3.070743E-1,7.532072E-2,-2.647328E-1,1.1368374E-1,-1.7771722E-1,-1.2606584E-1,6.2427106E-3,4.165919E-2,-6.1000716E-2,-1.8624541E-1,2.665804E-1,-2.9691955E-1,-2.223716E-1,1.1930223E-1,4.857946E-1,-2.7241084E-1,-1.3960098E-1,1.1146468E-1,4.176961E-1,-1.7625341E-1,-2.7296904E-1,-3.6383126E-2,-2.3020543E-1,-1.93206E-1,-4.6569362E-2,-1.4652123E-1,-2.87677E-2,-8.0044396E-2,1.8952632E-2,3.8900816E-1,-2.1489425E-1,-1.7580554E-1,1.883477E-2],"split_indices":[14,14,3,4,11,10,4,6,3,4,11,14,14,5,0,0,0,5,11,8,9,4,8,11,3,8,4,2,12,14,3,13,12,14,0,7,5,6,0,8,3,0,6,10,13,6,10,6,1,1,1,1,12,14,4,3,5,12,14,0,0,0,0,0,0,0,0,0,0,0,0,0,0,0,0,0,0,0,0,0,0,0,0,0,0,0,0,0,0,0,0,0,0,0,0,0,0,0,0,0,0,0,0,0,0,0,0,0,0,0,0],"split_type":[0,0,0,0,0,0,0,0,0,0,0,0,0,0,0,0,0,0,0,0,0,0,0,0,0,0,0,0,0,0,0,0,0,0,0,0,0,0,0,0,0,0,0,0,0,0,0,0,0,0,0,0,0,0,0,0,0,0,0,0,0,0,0,0,0,0,0,0,0,0,0,0,0,0,0,0,0,0,0,0,0,0,0,0,0,0,0,0,0,0,0,0,0,0,0,0,0,0,0,0,0,0,0,0,0,0,0,0,0,0,0],"sum_hessian":[1.055795E4,1.5134467E3,9.044504E3,4.9520303E2,1.0182436E3,8.7389307E2,8.170611E3,1.5942265E2,3.3578036E2,8.315756E2,1.86668E2,5.650651E2,3.0882794E2,4.9442984E2,7.6761807E3,1.2609042E0,1.5816176E2,1.7395161E2,1.6182877E2,1.4768498E2,6.838906E2,7.741643E1,1.0925157E2,1.7311484E2,3.919503E2,1.9705081E2,1.1177712E2,1.7574516E2,3.1868466E2,7.309168E3,3.6701276E2,2.920697E0,1.7103091E2,1.16715546E2,4.511321E1,2.0473747E1,1.2721123E2,2.0796857E2,4.7592206E2,6.3438614E1,1.3977817E1,1.2802671E0,1.07971306E2,5.5609222E1,1.1750561E2,1.8014632E2,2.1180397E2,2.2870524E0,1.9476376E2,2.6849957E0,1.09092125E2,2.1113577E0,1.736338E2,1.6883627E2,1.4984837E2,1.4907896E3,5.8183784E3,1.7918362E2,1.8782912E2,1.906184E0,1.014513E0,1.0463489E0,1.6998457E2,3.4800617E1,8.191493E1,1.8590723E1,1.8830247E0,1.0992397E2,1.7287256E1,2.0582356E2,2.1450105E0,6.001394E1,4.159081E2,1.0890499E0,6.2349564E1,1.194017E1,2.0376463E0,5.4738317E0,1.02497475E2,3.3276997E0,5.2281525E1,7.5275903E0,1.0997802E2,1.5550551E2,2.464081E1,7.9433815E1,1.3237015E2,1.2703881E0,1.0166643E0,1.4673465E2,4.8029114E1,1.0614566E0,1.6235392E0,2.8346952E1,8.074517E1,1.0876749E0,1.0236828E0,9.027864E1,8.335516E1,1.521546E2,1.6681677E1,1.1476026E2,3.5088123E1,1.6215276E2,1.3286368E3,2.9568365E2,5.522695E3,1.0691679E0,1.7811446E2,2.2577158E1,1.6525195E2],"tree_param":{"num_deleted":"0","num_feature":"15","num_nodes":"111","size_leaf_vector":"1"}},{"base_weights":[-1.1742385E-1,-5.005167E-1,-6.100152E-2,-7.681081E-1,-3.8232067E-1,-5.2682894E-1,-3.5586923E-2,-9.37506E-1,-6.356651E-1,-2.9710767E-1,-8.1400263E-1,-2.7596053E-1,-6.745907E-1,-2.4521317E-1,1.2362124E-3,-6.6897887E-1,-9.7697747E-1,-2.2719848E-1,-8.562514E-1,-7.927003E-1,-2.0501578E-1,-6.0706264E-1,-9.6416587E-1,-3.1768063E-1,1.9623609E0,-8.553195E-1,-5.1161546E-1,-1.1809053E-1,-5.739543E-1,-1.7666379E-1,3.4651697E-2,-1.0487375E-1,-8.5184586E-1,-9.935393E-1,-6.251084E-1,4.0970227E-1,-2.818962E-1,-9.45612E-1,-5.9815866E-1,-3.568868E-1,-8.427348E-1,-5.5441254E-1,-7.2216205E-2,-9.0548253E-1,2.1124986E-1,-4.170101E-2,-9.7462887E-1,-7.912184E-1,-2.4269064E-1,9.229823E-1,-3.397227E-2,-4.5106226E-1,-9.416279E-1,-1.7119104E-1,-6.5576416E-1,1.9679071E-2,-2.5983694E-1,-6.384756E-1,-1.0533933E-1,-8.169257E-2,-5.990245E-1,-2.2795038E-1,5.237052E-2,-1.4899117E-1,1.9256686E-1,-2.6886544E-1,-1.4022824E-2,-1.7064577E-1,-3.0184197E-1,-2.746244E-1,1.6012898E-1,-1.3390557E-1,7.699088E-2,-8.134257E-2,-2.860222E-1,7.627808E-2,-2.9167196E-1,2.5769046E-1,-1.7519113E-1,-1.17553525E-1,-2.7202466E-1,-1.9672157E-1,-9.897705E-2,-8.025923E-2,5.29884E-3,1.3373207E-1,-2.8325054E-1,3.2925323E-1,-7.2395876E-2,-2.0165256E-1,-3.0497694E-1,-1.09328456E-1,-2.6564652E-1,-9.1033526E-2,8.141673E-2,-1.7309636E-1,3.0327606E-1,-1.7619592E-1,-2.9823098E-1,2.3012769E-1,-1.1955264E-1,-1.4691058E-1,-2.3493649E-1,-9.934336E-2,1.9784449E-2,-1.6283928E-1,-5.8595344E-2,-1.5117949E-1,-2.559228E-1,4.1111994E-1,-5.611386E-2,-8.435481E-3,-1.4882869E-1,-1.4004564E-1,-3.137713E-1,-1.1020141E-3,-1.00011416E-1,1.7493257E-2,-1.5688115E-1],"categories":[],"categories_nodes":[],"categories_segments":[],"categories_sizes":[],"default_left":[0,0,0,0,0,0,0,0,0,0,0,0,0,0,0,0,0,0,0,0,0,0,0,0,0,0,0,0,0,0,0,0,0,0,0,0,0,0,0,0,0,0,0,0,0,0,0,0,0,0,0,0,0,0,0,0,0,0,0,0,0,0,0,0,0,0,0,0,0,0,0,0,0,0,0,0,0,0,0,0,0,0,0,0,0,0,0,0,0,0,0,0,0,0,0,0,0,0,0,0,0,0,0,0,0,0,0,0,0,0,0,0,0,0,0,0,0,0,0],"id":5,"left_children":[1,3,5,7,9,11,13,15,17,19,21,23,25,27,29,31,33,35,37,39,41,43,45,47,49,51,53,55,57,59,61,63,65,67,69,-1,71,73,75,77,79,81,83,85,87,-1,89,91,93,-1,-1,95,97,99,101,103,105,107,109,111,113,115,117,-1,-1,-1,-1,-1,-1,-1,-1,-1,-1,-1,-1,-1,-1,-1,-1,-1,-1,-1,-1,-1,-1,-1,-1,-1,-1,-1,-1,-1,-1,-1,-1,-1,-1,-1,-1,-1,-1,-1,-1,-1,-1,-1,-1,-1,-1,-1,-1,-1,-1,-1,-1,-1,-1,-1,-1],"loss_changes":[2.1992169E2,4.1018616E1,1.0500017E2,8.360153E0,3.315854E1,1.6823143E1,6.494003E1,1.1806641E0,2.0271172E1,3.451838E1,4.0483246E0,1.6664639E1,8.047577E0,5.2463234E1,4.2550888E1,2.5256348E0,2.4551392E-1,7.4431534E0,2.8276367E0,2.2881546E0,2.9755665E1,1.6162588E1,5.9588623E-1,5.8268967E0,7.9400244E0,4.289398E0,7.443226E0,1.7731743E1,1.052346E1,4.5353294E1,2.8050793E1,2.467969E0,6.3698864E-1,1.7866516E-1,3.6447306E0,0E0,7.124458E0,3.070526E-1,1.3181071E1,4.3563848E0,2.6974106E0,3.8030357E0,8.193098E0,2.9360428E0,7.600085E0,0E0,3.7617493E-1,5.917969E-1,4.6974945E0,0E0,0E0,5.3129187E0,1.4691162E0,1.0363329E1,1.8966713E0,7.5090804E0,8.063385E0,8.453926E0,5.51212E0,2.052789E1,1.1778664E1,9.008915E0,1.9325447E1,0E0,0E0,0E0,0E0,0E0,0E0,0E0,0E0,0E0,0E0,0E0,0E0,0E0,0E0,0E0,0E0,0E0,0E0,0E0,0E0,0E0,0E0,0E0,0E0,0E0,0E0,0E0,0E0,0E0,0E0,0E0,0E0,0E0,0E0,0E0,0E0,0E0,0E0,0E0,0E0,0E0,0E0,0E0,0E0,0E0,0E0,0E0,0E0,0E0,0E0,0E0,0E0,0E0,0E0,0E0,0E0],"parents":[2147483647,0,0,1,1,2,2,3,3,4,4,5,5,6,6,7,7,8,8,9,9,10,10,11,11,12,12,13,13,14,14,15,15,16,16,17,17,18,18,19,19,20,20,21,21,22,22,23,23,24,24,25,25,26,26,27,27,28,28,29,29,30,30,31,31,32,32,33,33,34,34,36,36,37,37,38,38,39,39,40,40,41,41,42,42,43,43,44,44,46,46,47,47,48,48,51,51,52,52,53,53,54,54,55,55,56,56,57,57,58,58,59,59,60,60,61,61,62,62],"right_children":[2,4,6,8,10,12,14,16,18,20,22,24,26,28,30,32,34,36,38,40,42,44,46,48,50,52,54,56,58,60,62,64,66,68,70,-1,72,74,76,78,80,82,84,86,88,-1,90,92,94,-1,-1,96,98,100,102,104,106,108,110,112,114,116,118,-1,-1,-1,-1,-1,-1,-1,-1,-1,-1,-1,-1,-1,-1,-1,-1,-1,-1,-1,-1,-1,-1,-1,-1,-1,-1,-1,-1,-1,-1,-1,-1,-1,-1,-1,-1,-1,-1,-1,-1,-1,-1,-1,-1,-1,-1,-1,-1,-1,-1,-1,-1,-1,-1,-1,-1],"split_conditions":[5.4446258E4,4.4032867E4,2.3168672E4,3.709823E4,3.5471996E4,1.5543518E4,3.0639229E4,2.8034234E4,4.7499332E4,2.4911336E4,4.068183E4,4.1373242E4,2.5645662E4,1.7443785E4,3.0163602E4,3.354323E4,4.3520996E4,3.1553305E4,3.8035363E4,1.3178246E4,2.6625287E4,6.601294E4,3.8648266E4,6.5469664E4,2.967617E4,1.7574824E4,1.704752E4,9.775697E3,7.339836E4,2.5868621E4,2.7659393E4,5.43432E4,4.836363E4,2.4122629E4,3.0049898E4,4.0970227E-1,4.7032574E4,1.7286883E4,5.4204797E4,1.7636398E4,2.6904281E4,6.022335E4,3.4880992E4,3.1121918E4,4.344648E4,-4.170101E-2,1.6131936E4,1.7944479E4,2.2262855E4,9.229823E-1,-3.397227E-2,2.2829379E4,1.2690117E4,7.9962445E4,2.6676906E4,2.3713918E4,2.2096984E4,3.906025E4,6.027412E4,3.799704E4,8.089069E4,8.369062E3,6.3252594E4,-1.4899117E-1,1.9256686E-1,-2.6886544E-1,-1.4022824E-2,-1.7064577E-1,-3.0184197E-1,-2.746244E-1,1.6012898E-1,-1.3390557E-1,7.699088E-2,-8.134257E-2,-2.860222E-1,7.627808E-2,-2.9167196E-1,2.5769046E-1,-1.7519113E-1,-1.17553525E-1,-2.7202466E-1,-1.9672157E-1,-9.897705E-2,-8.025923E-2,5.29884E-3,1.3373207E-1,-2.8325054E-1,3.2925323E-1,-7.2395876E-2,-2.0165256E-1,-3.0497694E-1,-1.09328456E-1,-2.6564652E-1,-9.1033526E-2,8.141673E-2,-1.7309636E-1,3.0327606E-1,-1.7619592E-1,-2.9823098E-1,2.3012769E-1,-1.1955264E-1,-1.4691058E-1,-2.3493649E-1,-9.934336E-2,1.9784449E-2,-1.6283928E-1,-5.8595344E-2,-1.5117949E-1,-2.559228E-1,4.1111994E-1,-5.611386E-2,-8.435481E-3,-1.4882869E-1,-1.4004564E-1,-3.137713E-1,-1.1020141E-3,-1.00011416E-1,1.7493257E-2,-1.5688115E-1],"split_indices":[14,14,3,4,11,10,4,6,5,4,11,6,1,2,3,4,14,2,9,2,9,4,8,14,1,10,7,2,14,7,9,3,5,14,4,0,4,11,8,11,9,7,4,8,7,0,6,1,7,0,0,3,7,14,7,4,4,8,9,13,5,0,0,0,0,0,0,0,0,0,0,0,0,0,0,0,0,0,0,0,0,0,0,0,0,0,0,0,0,0,0,0,0,0,0,0,0,0,0,0,0,0,0,0,0,0,0,0,0,0,0,0,0,0,0,0,0,0,0],"split_type":[0,0,0,0,0,0,0,0,0,0,0,0,0,0,0,0,0,0,0,0,0,0,0,0,0,0,0,0,0,0,0,0,0,0,0,0,0,0,0,0,0,0,0,0,0,0,0,0,0,0,0,0,0,0,0,0,0,0,0,0,0,0,0,0,0,0,0,0,0,0,0,0,0,0,0,0,0,0,0,0,0,0,0,0,0,0,0,0,0,0,0,0,0,0,0,0,0,0,0,0,0,0,0,0,0,0,0,0,0,0,0,0,0,0,0,0,0,0,0],"sum_hessian":[1.017491E4,1.3051835E3,8.869727E3,3.9819235E2,9.069912E2,4.5785806E2,8.411868E3,1.7205339E2,2.2613896E2,7.588786E2,1.4811258E2,1.7077896E2,2.870791E2,1.2560104E3,7.155858E3,2.4349613E1,1.4770377E2,8.0010666E1,1.461283E2,1.1772636E2,6.411522E2,6.440237E1,8.371022E1,1.6849641E2,2.2825353E0,1.3411089E2,1.5296823E2,9.067382E2,3.4927216E2,1.1308835E3,6.024974E3,6.3462625E0,1.800335E1,1.3932251E2,8.38126E0,1.8605722E0,7.815009E1,1.0656721E2,3.956109E1,1.29614725E1,1.04764885E2,1.7570258E2,4.6544968E2,4.7114323E1,1.7288042E1,1.227016E0,8.248321E1,2.1729652E1,1.4676677E2,1.1714127E0,1.1111227E0,2.4690401E1,1.0942048E2,4.6155087E1,1.0681314E2,4.6025613E2,4.464821E2,3.0668384E2,4.2588303E1,9.242516E2,2.06632E2,3.80083E2,5.644891E3,4.382226E0,1.9640363E0,1.6955687E1,1.0476636E0,5.3438344E0,1.3397868E2,6.870282E0,1.5109776E0,5.9998936E1,1.8151157E1,1.6264274E0,1.0494078E2,1.216378E1,2.7397308E1,1.6019068E0,1.1359566E1,1.3909936E1,9.085495E1,1.1973682E2,5.5965748E1,1.4606395E2,3.193857E2,1.0184394E0,4.6095882E1,5.3622165E0,1.1925825E1,1.2122607E1,7.0360596E1,4.811635E0,1.6918016E1,1.3162137E2,1.5145405E1,2.3289717E1,1.4006853E0,1.568813E1,9.373235E1,8.538166E0,3.761692E1,4.8464737E1,5.8348404E1,5.291147E1,4.0734467E2,8.152521E1,3.6495688E2,1.9056012E2,1.1612372E2,1.4068316E0,4.1181473E1,8.1938837E2,1.0486322E2,1.6103557E2,4.5596436E1,1.2186251E2,2.582205E2,5.58809E3,5.680115E1],"tree_param":{"num_deleted":"0","num_feature":"15","num_nodes":"119","size_leaf_vector":"1"}},{"base_weights":[-8.9175366E-2,-5.892118E-1,-5.9205182E-2,-8.698164E-1,-4.767674E-1,-4.627779E-1,-4.039494E-2,-6.782083E-1,-9.54899E-1,-7.556159E-1,-2.1785715E-1,-8.609792E-1,-3.5225165E-1,-4.6504807E-1,-2.4518803E-2,2.9068342E-1,-7.229477E-1,-1.3747543E-2,-9.631587E-1,-8.930132E-1,-6.041866E-1,6.526681E-2,-5.846489E-1,-9.108076E-1,-4.9368435E-1,-2.0128803E-1,-5.941199E-1,-7.352821E-1,-3.2353994E-1,-3.037746E-1,-1.1492458E-2,-9.519987E-3,1.4054345E-1,-8.6948943E-1,-3.8621154E-1,-1.702825E-2,-2.9156315E-1,-9.016715E-1,-1.7942106E-2,-1.873762E-1,-8.001606E-1,-6.0245868E-2,7.083986E-1,-3.9218393E-1,-9.391367E-1,-9.432225E-1,-2.2315626E-1,7.635585E-1,-8.4668523E-1,4.270925E-1,-2.1655264E-1,-8.0745125E-1,-3.926534E-1,2.1326724E-1,-7.6666045E-1,-5.2128613E-1,-1.5610243E-1,-1.1687239E-1,-4.0839165E-1,-4.772521E-3,-5.979535E-1,-2.7521753E-1,-8.686559E-2,-2.2828142E-1,1.4929292E-1,-5.485145E-2,-2.7298665E-1,-1.0225711E-1,3.3420455E-1,-1.2507212E-1,-2.7176765E-1,9.328969E-2,-8.318692E-2,2.470145E-2,4.7009346E-1,-2.5084224E-1,1.5566005E-4,-4.4575192E-2,-2.9044604E-1,-1.6527861E-2,-2.8665358E-1,-2.2844604E-1,2.0610195E-1,5.2750057E-1,-1.6932122E-1,-2.777219E-1,-6.2443085E-2,-8.573176E-2,4.207825E-2,1.2071452E-1,-2.5093466E-1,2.2829707E-1,-1.4269215E-1,-2.456942E-1,3.2204613E-2,-1.1444434E-1,-2.52168E-1,8.778675E-2,-8.7704554E-2,-5.0225485E-2,3.9082944E-1,-1.2837464E-1,1.4057082E-1,-1.0437322E-1,9.2727575E-4,-2.4905051E-1,-7.5583294E-2],"categories":[],"categories_nodes":[],"categories_segments":[],"categories_sizes":[],"default_left":[0,0,0,0,0,0,0,0,0,0,0,0,0,0,0,0,0,0,0,0,0,0,0,0,0,0,0,0,0,0,0,0,0,0,0,0,0,0,0,0,0,0,0,0,0,0,0,0,0,0,0,0,0,0,0,0,0,0,0,0,0,0,0,0,0,0,0,0,0,0,0,0,0,0,0,0,0,0,0,0,0,0,0,0,0,0,0,0,0,0,0,0,0,0,0,0,0,0,0,0,0,0,0,0,0,0,0],"id":6,"left_children":[1,3,5,7,9,11,13,15,17,19,21,23,25,27,29,31,33,-1,35,37,39,41,43,45,47,49,51,53,55,57,59,-1,-1,61,63,-1,-1,65,-1,67,69,71,73,75,77,79,81,83,85,-1,87,89,91,-1,93,95,97,99,101,103,105,-1,-1,-1,-1,-1,-1,-1,-1,-1,-1,-1,-1,-1,-1,-1,-1,-1,-1,-1,-1,-1,-1,-1,-1,-1,-1,-1,-1,-1,-1,-1,-1,-1,-1,-1,-1,-1,-1,-1,-1,-1,-1,-1,-1,-1,-1],"loss_changes":[1.4808392E2,1.7216171E1,7.077711E1,1.9386826E0,2.8796066E1,1.797129E1,6.006991E1,2.4743824E0,7.623596E-1,3.4703064E0,2.1784798E1,1.1886902E0,1.1809402E1,1.2041481E1,3.1249954E1,1.879121E-1,2.142128E0,0E0,7.855835E-1,6.59935E-1,7.5915413E0,9.655241E0,5.8625183E0,1.5201569E0,6.361492E0,5.335167E0,5.0569687E0,5.5173187E0,6.9557476E0,7.438545E0,3.2351475E1,0E0,0E0,6.841717E-1,6.017665E0,0E0,0E0,4.1638947E-1,0E0,6.694493E0,2.222145E0,8.188254E0,1.0365377E1,1.0619072E1,5.768814E-1,7.532425E-1,2.877473E0,5.416232E0,3.387828E-1,0E0,5.020463E0,2.4339294E0,6.704935E0,0E0,5.014145E0,4.009985E0,7.208969E0,1.0177956E1,4.3964577E0,2.1904676E1,7.2629967E0,0E0,0E0,0E0,0E0,0E0,0E0,0E0,0E0,0E0,0E0,0E0,0E0,0E0,0E0,0E0,0E0,0E0,0E0,0E0,0E0,0E0,0E0,0E0,0E0,0E0,0E0,0E0,0E0,0E0,0E0,0E0,0E0,0E0,0E0,0E0,0E0,0E0,0E0,0E0,0E0,0E0,0E0,0E0,0E0,0E0,0E0],"parents":[2147483647,0,0,1,1,2,2,3,3,4,4,5,5,6,6,7,7,8,8,9,9,10,10,11,11,12,12,13,13,14,14,15,15,16,16,18,18,19,19,20,20,21,21,22,22,23,23,24,24,25,25,26,26,27,27,28,28,29,29,30,30,33,33,34,34,37,37,39,39,40,40,41,41,42,42,43,43,44,44,45,45,46,46,47,47,48,48,50,50,51,51,52,52,54,54,55,55,56,56,57,57,58,58,59,59,60,60],"right_children":[2,4,6,8,10,12,14,16,18,20,22,24,26,28,30,32,34,-1,36,38,40,42,44,46,48,50,52,54,56,58,60,-1,-1,62,64,-1,-1,66,-1,68,70,72,74,76,78,80,82,84,86,-1,88,90,92,-1,94,96,98,100,102,104,106,-1,-1,-1,-1,-1,-1,-1,-1,-1,-1,-1,-1,-1,-1,-1,-1,-1,-1,-1,-1,-1,-1,-1,-1,-1,-1,-1,-1,-1,-1,-1,-1,-1,-1,-1,-1,-1,-1,-1,-1,-1,-1,-1,-1,-1,-1],"split_conditions":[4.8147227E4,3.1834389E4,2.3168672E4,2.4551572E4,5.352173E4,6.5469664E4,2.3713918E4,2.532125E4,2.7902854E4,4.3346074E4,5.8286508E4,3.2956973E4,3.2365867E4,5.721429E4,2.585412E4,5.4951586E4,2.646304E4,-1.3747543E-2,5.0960188E4,5.745758E4,5.597995E4,4.004908E4,3.2331977E4,2.2829379E4,3.440392E4,6.5554805E4,7.89065E4,4.135581E4,2.6956914E4,2.0473625E4,6.2689727E4,-9.519987E-3,1.4054345E-1,5.2115547E4,1.8714865E4,-1.702825E-2,-2.9156315E-1,1.8239943E4,-1.7942106E-2,7.874604E4,1.6029338E4,5.446683E4,7.019605E4,4.4345164E4,5.1106125E4,1.341854E4,8.7645086E4,2.4088623E4,4.190042E4,4.270925E-1,9.751945E4,9.4679E3,8.845126E4,2.1326724E-1,4.0863746E4,1.9354883E4,2.8819035E4,4.6242906E4,6.3179504E4,1.5254527E4,6.791511E4,-2.7521753E-1,-8.686559E-2,-2.2828142E-1,1.4929292E-1,-5.485145E-2,-2.7298665E-1,-1.0225711E-1,3.3420455E-1,-1.2507212E-1,-2.7176765E-1,9.328969E-2,-8.318692E-2,2.470145E-2,4.7009346E-1,-2.5084224E-1,1.5566005E-4,-4.4575192E-2,-2.9044604E-1,-1.6527861E-2,-2.8665358E-1,-2.2844604E-1,2.0610195E-1,5.2750057E-1,-1.6932122E-1,-2.777219E-1,-6.2443085E-2,-8.573176E-2,4.207825E-2,1.2071452E-1,-2.5093466E-1,2.2829707E-1,-1.4269215E-1,-2.456942E-1,3.2204613E-2,-1.1444434E-1,-2.52168E-1,8.778675E-2,-8.7704554E-2,-5.0225485E-2,3.9082944E-1,-1.2837464E-1,1.4057082E-1,-1.0437322E-1,9.2727575E-4,-2.4905051E-1,-7.5583294E-2],"split_indices":[14,4,3,2,3,14,4,9,6,3,10,1,13,14,9,10,4,0,3,10,7,9,11,3,1,14,14,13,5,8,0,0,0,6,8,0,0,13,0,12,11,1,7,9,0,13,12,10,1,0,5,7,4,0,5,2,5,4,14,1,9,0,0,0,0,0,0,0,0,0,0,0,0,0,0,0,0,0,0,0,0,0,0,0,0,0,0,0,0,0,0,0,0,0,0,0,0,0,0,0,0,0,0,0,0,0,0],"split_type":[0,0,0,0,0,0,0,0,0,0,0,0,0,0,0,0,0,0,0,0,0,0,0,0,0,0,0,0,0,0,0,0,0,0,0,0,0,0,0,0,0,0,0,0,0,0,0,0,0,0,0,0,0,0,0,0,0,0,0,0,0,0,0,0,0,0,0,0,0,0,0,0,0,0,0,0,0,0,0,0,0,0,0,0,0,0,0,0,0,0,0,0,0,0,0,0,0,0,0,0,0,0,0,0,0,0,0],"sum_hessian":[9.882692E3,5.5777966E2,9.324913E3,1.5764403E2,4.001356E2,4.14221E2,8.910692E3,5.123429E1,1.0640974E2,1.917263E2,2.084093E2,8.8518585E1,3.2570242E2,3.2011084E2,8.590581E3,2.0187325E0,4.9215557E1,1.0170777E0,1.0539266E2,9.795288E1,9.377342E1,1.1808352E2,9.0325775E1,7.664139E1,1.18771925E1,2.0166446E2,1.2403795E2,1.0857404E2,2.115368E2,3.818678E2,8.208714E3,1.0095359E0,1.0091968E0,3.318982E1,1.602574E1,1.0756394E0,1.04317024E2,9.6864136E1,1.0887444E0,3.0615183E1,6.315824E1,9.955988E1,1.852364E1,5.9906555E1,3.0419222E1,7.2836334E1,3.8050585E0,2.3487759E0,9.528417E0,1.0181434E0,2.0064632E2,5.8784077E1,6.525387E1,1.8458651E0,1.0672818E2,9.602112E1,1.15515686E2,1.378001E2,2.440677E2,8.116717E3,9.199689E1,3.0120052E1,3.0697658E0,1.1351942E1,4.673797E0,1.3664063E0,9.549773E1,2.8045671E1,2.5695107E0,1.4725311E1,4.843293E1,3.6574146E1,6.2985733E1,1.1346142E1,7.1774974E0,2.7588322E1,3.2318237E1,1.2936882E0,2.9125534E1,1.0689398E0,7.1767395E1,2.4935558E0,1.3115028E0,1.1575617E0,1.1912142E0,8.07849E0,1.4499264E0,1.68213E2,3.243332E1,1.0745715E0,5.7709507E1,3.8307505E0,6.142312E1,1.0075945E2,5.968729E0,6.830588E1,2.7715237E1,2.6637531E1,8.887815E1,1.3391418E2,3.8859155E0,2.3925325E2,4.8144484E0,1.8086887E2,7.9358477E3,5.4213608E1,3.7783283E1],"tree_param":{"num_deleted":"0","num_feature":"15","num_nodes":"107","size_leaf_vector":"1"}},{"base_weights":[-6.674294E-2,-5.093105E-1,-4.3641567E-2,-8.152044E-1,-3.9982775E-1,-2.8146127E-1,-2.2235418E-2,-5.997096E-1,-9.2019594E-1,-7.4030095E-1,-2.0559515E-1,-1.6959605E-1,-7.107317E-1,-1.6947721E-1,1.3751793E-2,1.3552347E-1,-6.6170126E-1,-1.175017E-2,-9.305831E-1,-9.3429744E-1,-5.9829575E-1,-9.177707E-2,-8.167509E-1,-1.0767953E-1,-5.134124E-1,-8.6453944E-1,-4.486254E-1,-6.4778894E-2,-4.0379226E-1,-1.0114713E-1,4.254124E-2,-1.9545864E-1,2.5988913E-1,-8.934229E-1,-3.6483338E-1,-1.45192845E-2,-2.8247893E-1,-9.518666E-1,-9.231523E-3,-4.099315E-1,-8.987478E-1,-7.197331E-1,-5.885377E-4,-4.2320997E-1,-2.8455624E-1,-1.62125E-1,2.8839615E-1,-7.782984E-1,-1.8121324E-1,-5.3795296E-1,-9.910112E-1,2.90707E-1,-6.5665174E-1,3.2431535E-2,-1.7423573E-1,-3.4483385E-1,-7.570085E-1,-7.101604E-2,-7.3901165E-1,2.9578155E-1,1.9455485E-2,-2.9299966E-1,-7.017136E-2,-2.578165E-1,3.88E-2,-9.439477E-2,-2.907659E-1,-1.6328926E-1,7.8162E-2,-2.7836445E-1,-7.2755136E-2,2.3947765E-1,-2.4968195E-1,-3.184695E-2,1.4340185E-1,-2.5090632E-1,2.6720884E-1,1.1931017E-2,-6.899667E-2,3.1290686E-1,4.05222E-2,-1.2545079E-1,-2.6963246E-1,-7.954506E-2,3.458798E-1,-1.8685716E-1,2.5686336E-1,-6.422614E-2,-3.057108E-1,-2.6756287E-1,2.5518435E-1,6.2049545E-2,-2.1021059E-1,-1.2891316E-1,1.8664876E-2,-4.4749364E-2,-2.4248E-1,-2.305438E-1,-9.059597E-2,-2.9749525E-1,-1.4672503E-1,-1.6181633E-1,-1.6884455E-2,-1.5797967E-1,-3.0501983E-1,4.8829492E-2,2.7703613E-1,4.6723098E-2,-4.5964707E-4],"categories":[],"categories_nodes":[],"categories_segments":[],"categories_sizes":[],"default_left":[0,0,0,0,0,0,0,0,0,0,0,0,0,0,0,0,0,0,0,0,0,0,0,0,0,0,0,0,0,0,0,0,0,0,0,0,0,0,0,0,0,0,0,0,0,0,0,0,0,0,0,0,0,0,0,0,0,0,0,0,0,0,0,0,0,0,0,0,0,0,0,0,0,0,0,0,0,0,0,0,0,0,0,0,0,0,0,0,0,0,0,0,0,0,0,0,0,0,0,0,0,0,0,0,0,0,0,0,0],"id":7,"left_children":[1,3,5,7,9,11,13,15,17,19,21,23,25,27,29,31,33,-1,35,37,39,41,43,45,47,49,51,53,55,57,59,-1,-1,61,63,-1,-1,65,-1,67,69,71,73,75,-1,77,79,81,83,85,87,89,91,93,95,97,99,101,103,105,107,-1,-1,-1,-1,-1,-1,-1,-1,-1,-1,-1,-1,-1,-1,-1,-1,-1,-1,-1,-1,-1,-1,-1,-1,-1,-1,-1,-1,-1,-1,-1,-1,-1,-1,-1,-1,-1,-1,-1,-1,-1,-1,-1,-1,-1,-1,-1,-1],"loss_changes":[9.8842285E1,1.5736618E1,4.6784843E1,2.2865677E0,2.3335419E1,3.632248E1,4.468938E1,2.0937529E0,7.183838E-1,2.9845963E0,1.5752669E1,1.2788481E1,5.924103E0,4.061031E1,2.2424932E1,3.008306E0,2.4752636E0,0E0,7.460556E-1,8.054199E-1,3.9920597E0,1.1047866E1,1.4444656E0,1.1099222E1,7.937443E0,3.4977493E0,9.415741E0,1.2200228E1,1.0388306E1,2.6053988E1,3.1684536E1,0E0,0E0,9.892101E-1,4.8868933E0,0E0,0E0,2.6501846E-1,0E0,4.5738335E0,3.265686E-1,4.8437443E0,8.613445E0,6.5720167E0,0E0,6.1916313E0,7.0671825E0,1.8271179E0,5.012577E0,4.0169344E0,1.2876892E0,9.938329E0,1.9370422E0,8.393432E0,8.451075E0,7.7559395E0,4.060951E0,8.928587E0,3.0727158E0,3.765413E1,1.421291E1,0E0,0E0,0E0,0E0,0E0,0E0,0E0,0E0,0E0,0E0,0E0,0E0,0E0,0E0,0E0,0E0,0E0,0E0,0E0,0E0,0E0,0E0,0E0,0E0,0E0,0E0,0E0,0E0,0E0,0E0,0E0,0E0,0E0,0E0,0E0,0E0,0E0,0E0,0E0,0E0,0E0,0E0,0E0,0E0,0E0,0E0,0E0,0E0],"parents":[2147483647,0,0,1,1,2,2,3,3,4,4,5,5,6,6,7,7,8,8,9,9,10,10,11,11,12,12,13,13,14,14,15,15,16,16,18,18,19,19,20,20,21,21,22,22,23,23,24,24,25,25,26,26,27,27,28,28,29,29,30,30,33,33,34,34,37,37,39,39,40,40,41,41,42,42,43,43,45,45,46,46,47,47,48,48,49,49,50,50,51,51,52,52,53,53,54,54,55,55,56,56,57,57,58,58,59,59,60,60],"right_children":[2,4,6,8,10,12,14,16,18,20,22,24,26,28,30,32,34,-1,36,38,40,42,44,46,48,50,52,54,56,58,60,-1,-1,62,64,-1,-1,66,-1,68,70,72,74,76,-1,78,80,82,84,86,88,90,92,94,96,98,100,102,104,106,108,-1,-1,-1,-1,-1,-1,-1,-1,-1,-1,-1,-1,-1,-1,-1,-1,-1,-1,-1,-1,-1,-1,-1,-1,-1,-1,-1,-1,-1,-1,-1,-1,-1,-1,-1,-1,-1,-1,-1,-1,-1,-1,-1,-1,-1,-1,-1,-1],"split_conditions":[4.8147227E4,3.1834389E4,2.6865734E4,2.4551572E4,5.0077E4,2.5868621E4,3.1696705E4,2.6102559E4,2.7902854E4,2.0313303E4,5.134454E4,2.1931875E4,3.2956973E4,1.6403908E4,6.085042E4,2.4715527E4,2.5436643E4,-1.175017E-2,5.0960188E4,6.2233613E4,6.654045E4,3.0405379E4,3.2184865E4,5.3927305E4,2.8594312E4,1.7055959E4,3.440392E4,9.775697E3,4.252684E4,4.4242543E4,2.8039477E4,-1.9545864E-1,2.5988913E-1,4.2716453E4,3.2603129E4,-1.45192845E-2,-2.8247893E-1,2.8155992E4,-9.231523E-3,3.4460844E4,5.2322363E4,3.2105488E4,3.8009754E4,4.7032574E4,-2.8455624E-1,8.1485923E3,9.2299305E4,1.0699664E5,6.0700723E4,2.0422365E4,1.3223764E4,2.7337953E4,1.1102263E4,4.9055156E4,3.8394098E4,8.970876E3,6.5283203E4,3.514381E4,4.1592754E4,6.460832E4,3.1078535E4,-2.9299966E-1,-7.017136E-2,-2.578165E-1,3.88E-2,-9.439477E-2,-2.907659E-1,-1.6328926E-1,7.8162E-2,-2.7836445E-1,-7.2755136E-2,2.3947765E-1,-2.4968195E-1,-3.184695E-2,1.4340185E-1,-2.5090632E-1,2.6720884E-1,1.1931017E-2,-6.899667E-2,3.1290686E-1,4.05222E-2,-1.2545079E-1,-2.6963246E-1,-7.954506E-2,3.458798E-1,-1.8685716E-1,2.5686336E-1,-6.422614E-2,-3.057108E-1,-2.6756287E-1,2.5518435E-1,6.2049545E-2,-2.1021059E-1,-1.2891316E-1,1.8664876E-2,-4.4749364E-2,-2.4248E-1,-2.305438E-1,-9.059597E-2,-2.9749525E-1,-1.4672503E-1,-1.6181633E-1,-1.6884455E-2,-1.5797967E-1,-3.0501983E-1,4.8829492E-2,2.7703613E-1,4.6723098E-2,-4.5964707E-4],"split_indices":[14,4,3,2,3,7,4,9,6,9,0,10,1,2,14,9,4,0,3,2,5,14,11,9,1,10,1,2,8,11,11,0,0,0,9,0,0,3,0,9,1,0,8,4,0,10,4,12,9,13,6,0,13,6,5,8,14,7,10,14,5,0,0,0,0,0,0,0,0,0,0,0,0,0,0,0,0,0,0,0,0,0,0,0,0,0,0,0,0,0,0,0,0,0,0,0,0,0,0,0,0,0,0,0,0,0,0,0,0],"split_type":[0,0,0,0,0,0,0,0,0,0,0,0,0,0,0,0,0,0,0,0,0,0,0,0,0,0,0,0,0,0,0,0,0,0,0,0,0,0,0,0,0,0,0,0,0,0,0,0,0,0,0,0,0,0,0,0,0,0,0,0,0,0,0,0,0,0,0,0,0,0,0,0,0,0,0,0,0,0,0,0,0,0,0,0,0,0,0,0,0,0,0,0,0,0,0,0,0,0,0,0,0,0,0,0,0,0,0,0,0],"sum_hessian":[9.668922E3,4.7862164E2,9.190301E3,1.244535E2,3.5416815E2,7.579062E2,8.432395E3,4.2969913E1,8.148358E1,1.2763081E2,2.2653734E2,6.023362E2,1.5556999E2,1.6554413E3,6.776953E3,3.2490807E0,3.9720833E1,1.005075E0,8.047851E1,5.1582905E1,7.6047905E1,1.9194145E2,3.4595886E1,5.1153E2,9.08062E1,9.659074E1,5.897926E1,1.1450696E3,5.103717E2,1.3573289E3,5.419624E3,1.6165143E0,1.6325663E0,2.1179544E1,1.8541288E1,1.0588242E0,7.9419685E1,5.054652E1,1.0363865E0,4.819629E1,2.7851616E1,2.3464426E1,1.6847704E2,9.734574E0,2.4861313E1,4.502309E2,6.1299095E1,4.977455E1,4.1031643E1,2.8429953E1,6.816079E1,1.2863722E1,4.6115536E1,6.06834E2,5.382356E2,4.3906058E2,7.1311134E1,1.2971654E3,6.0163445E1,4.5179745E2,4.9678267E3,1.8378931E1,2.8006124E0,8.897617E0,9.643672E0,1.8472186E0,4.86993E1,4.030679E1,7.8895025E0,2.6271332E1,1.5802844E0,1.1989756E0,2.226545E1,1.3866797E2,2.980906E1,7.6823864E0,2.0521882E0,1.1336976E2,3.3686115E2,9.371464E0,5.192763E1,1.3598067E1,3.6176483E1,3.9356796E1,1.6748495E0,2.7319445E1,1.110508E0,2.6738377E0,6.5486946E1,3.9429336E0,8.920788E0,2.0590053E0,4.4056534E1,3.592903E1,5.7090497E2,5.1895026E2,1.9285345E1,3.877217E1,4.0028842E2,3.6576824E1,3.473431E1,3.847696E1,1.2586885E3,3.573101E1,2.4432434E1,3.7383374E2,7.7963715E1,6.6207385E2,4.305753E3],"tree_param":{"num_deleted":"0","num_feature":"15","num_nodes":"109","size_leaf_vector":"1"}},{"base_weights":[-5.0459575E-2,-3.6608192E-1,-2.9074516E-2,-6.193168E-1,-2.4933249E-1,-2.0547414E-1,-1.2141998E-2,-8.0615103E-1,-4.2216715E-1,2.93869E-2,-4.660781E-1,-8.760159E-2,-5.286055E-1,-2.8399053E-1,-9.1198913E-4,-3.7929797E-1,-8.483744E-1,4.7556773E-1,-5.170724E-1,1.0151302E-1,-5.6333435E-1,-7.522699E-1,-3.4400058E-1,-3.603302E-1,3.7634257E-2,-8.2833135E-1,-3.3732724E-1,-5.81983E-1,-1.8018815E-1,8.133645E-3,-1.936705E-1,4.5576163E-2,-2.5139737E-1,-9.261478E-1,-6.361566E-1,-1.14230104E-1,1.6074147E0,4.3960047E-1,-5.662803E-1,2.9625062E-2,6.633862E-1,-2.7351916E-1,-2.7460822E-1,-7.838395E-1,-1.20752975E-1,-1.8219426E-1,-8.05337E-1,-5.005019E-1,-2.0955351E-1,8.746067E-3,7.067246E-1,-5.9951395E-1,-2.8700778E-1,-1.6515589E-1,-6.439482E-1,-3.8569164E-1,-9.258342E-1,-4.6047848E-1,-6.017433E-2,-9.2923135E-2,2.1955527E-2,-3.6728925E-1,-1.2234633E-2,-8.705628E-2,2.5986707E-1,-7.8826986E-2,-2.8204855E-1,3.5350586E-3,-2.217686E-1,2.653909E-1,-1.2983349E-1,9.3830705E-2,6.5586674E-1,-1.0491904E-1,3.374494E-1,5.2926112E-2,-1.8427944E-1,4.3051325E-2,-2.9533657E-1,6.676209E-1,6.847932E-2,-2.579466E-1,3.8849786E-1,-1.5641683E-1,-2.6745895E-1,1.5580612E-1,-1.9918142E-1,-7.689579E-2,1.6512795E-1,-1.4339568E-1,-2.6526204E-1,-8.814878E-2,-2.2219197E-1,-2.1198575E-1,-1.82038E-2,4.035114E-2,-4.056854E-2,2.590343E-1,-2.0295198E-1,-2.0337473E-1,-1.5000335E-2,1.119058E-2,-1.4620285E-1,-1.0172883E-1,-2.6162428E-1,-1.4363274E-1,4.8040238E-1,-1.0998431E-1,-2.9686E-1,2.2490335E-1,-1.5013433E-1,3.1830633E-1,-2.6512338E-2,-8.756718E-3,-1.00181155E-1,3.2359708E-2,-7.648919E-4,1.379782E-1,-1.21874735E-1,-2.0448275E-2,2.1403655E-1],"categories":[],"categories_nodes":[],"categories_segments":[],"categories_sizes":[],"default_left":[0,0,0,0,0,0,0,0,0,0,0,0,0,0,0,0,0,0,0,0,0,0,0,0,0,0,0,0,0,0,0,0,0,0,0,0,0,0,0,0,0,0,0,0,0,0,0,0,0,0,0,0,0,0,0,0,0,0,0,0,0,0,0,0,0,0,0,0,0,0,0,0,0,0,0,0,0,0,0,0,0,0,0,0,0,0,0,0,0,0,0,0,0,0,0,0,0,0,0,0,0,0,0,0,0,0,0,0,0,0,0,0,0,0,0,0,0,0,0,0,0],"id":8,"left_children":[1,3,5,7,9,11,13,15,17,19,21,23,25,27,29,31,33,35,37,39,41,43,45,47,49,51,53,55,57,59,61,63,-1,65,67,69,71,73,75,77,79,81,-1,83,85,87,89,91,93,95,97,99,-1,101,103,105,107,109,111,113,115,117,119,-1,-1,-1,-1,-1,-1,-1,-1,-1,-1,-1,-1,-1,-1,-1,-1,-1,-1,-1,-1,-1,-1,-1,-1,-1,-1,-1,-1,-1,-1,-1,-1,-1,-1,-1,-1,-1,-1,-1,-1,-1,-1,-1,-1,-1,-1,-1,-1,-1,-1,-1,-1,-1,-1,-1,-1,-1,-1],"loss_changes":[6.417708E1,1.7684196E1,2.660318E1,6.647888E0,2.5063087E1,2.9665527E1,2.4814644E1,1.4140129E0,8.289722E0,7.8520136E0,7.8927116E0,1.957692E1,1.16627655E1,9.869532E0,1.3613952E1,2.0801735E0,8.4396744E-1,6.557131E0,4.291052E0,6.5803537E0,1.7832513E0,1.2794228E0,1.2199474E1,3.7065716E0,7.598417E0,1.7896767E0,6.695386E0,5.2353954E0,8.065802E0,1.0419296E1,1.1020033E1,2.011493E0,0E0,3.233261E-1,1.7772455E0,2.6770961E0,1.8168783E0,2.969812E0,3.0342731E0,1.6991537E1,1.2057533E1,1.2478792E1,0E0,1.3852348E0,1.8967546E0,6.860852E0,6.7861366E-1,4.3849297E0,6.513871E0,6.8651614E0,4.11143E0,1.3272591E0,0E0,5.488038E0,2.9024544E0,1.0839809E1,6.8440056E-1,3.8569517E0,5.4567122E0,1.3776783E1,1.3813735E1,5.949486E0,7.036196E0,0E0,0E0,0E0,0E0,0E0,0E0,0E0,0E0,0E0,0E0,0E0,0E0,0E0,0E0,0E0,0E0,0E0,0E0,0E0,0E0,0E0,0E0,0E0,0E0,0E0,0E0,0E0,0E0,0E0,0E0,0E0,0E0,0E0,0E0,0E0,0E0,0E0,0E0,0E0,0E0,0E0,0E0,0E0,0E0,0E0,0E0,0E0,0E0,0E0,0E0,0E0,0E0,0E0,0E0,0E0,0E0,0E0,0E0],"parents":[2147483647,0,0,1,1,2,2,3,3,4,4,5,5,6,6,7,7,8,8,9,9,10,10,11,11,12,12,13,13,14,14,15,15,16,16,17,17,18,18,19,19,20,20,21,21,22,22,23,23,24,24,25,25,26,26,27,27,28,28,29,29,30,30,31,31,33,33,34,34,35,35,36,36,37,37,38,38,39,39,40,40,41,41,43,43,44,44,45,45,46,46,47,47,48,48,49,49,50,50,51,51,53,53,54,54,55,55,56,56,57,57,58,58,59,59,60,60,61,61,62,62],"right_children":[2,4,6,8,10,12,14,16,18,20,22,24,26,28,30,32,34,36,38,40,42,44,46,48,50,52,54,56,58,60,62,64,-1,66,68,70,72,74,76,78,80,82,-1,84,86,88,90,92,94,96,98,100,-1,102,104,106,108,110,112,114,116,118,120,-1,-1,-1,-1,-1,-1,-1,-1,-1,-1,-1,-1,-1,-1,-1,-1,-1,-1,-1,-1,-1,-1,-1,-1,-1,-1,-1,-1,-1,-1,-1,-1,-1,-1,-1,-1,-1,-1,-1,-1,-1,-1,-1,-1,-1,-1,-1,-1,-1,-1,-1,-1,-1,-1,-1,-1,-1,-1],"split_conditions":[5.0890957E4,3.4880992E4,2.7397771E4,4.5603293E4,4.6641582E4,1.9745414E4,2.4911336E4,2.8034234E4,1.0219231E4,4.3784094E4,2.2787986E4,4.0742664E4,2.4267648E4,5.7537492E4,5.99913E4,3.354323E4,4.3520996E4,1.6294133E4,1.923664E4,3.950989E4,5.5932652E4,4.7788887E4,3.86449E4,2.9482357E4,5.616151E4,2.309139E4,2.6676906E4,7.531556E4,2.4086969E4,3.0671293E4,1.0564243E5,3.3254734E4,-2.5139737E-1,2.4122629E4,7.1932124E3,1.4242634E4,4.641158E4,4.777752E4,1.5469569E4,6.878442E4,6.965762E4,5.2525684E4,-2.7460822E-1,2.1854314E4,4.9542973E4,6.471314E4,1.6131936E4,2.4473732E4,7.858004E4,6.393918E4,4.6575086E4,2.2619924E4,-2.8700778E-1,5.785178E4,2.8233486E4,7.4351E4,5.2137484E4,5.3720034E3,2.8412688E4,1.7345715E4,1.8628068E4,9.4679E3,8.2825016E4,-8.705628E-2,2.5986707E-1,-7.8826986E-2,-2.8204855E-1,3.5350586E-3,-2.217686E-1,2.653909E-1,-1.2983349E-1,9.3830705E-2,6.5586674E-1,-1.0491904E-1,3.374494E-1,5.2926112E-2,-1.8427944E-1,4.3051325E-2,-2.9533657E-1,6.676209E-1,6.847932E-2,-2.579466E-1,3.8849786E-1,-1.5641683E-1,-2.6745895E-1,1.5580612E-1,-1.9918142E-1,-7.689579E-2,1.6512795E-1,-1.4339568E-1,-2.6526204E-1,-8.814878E-2,-2.2219197E-1,-2.1198575E-1,-1.82038E-2,4.035114E-2,-4.056854E-2,2.590343E-1,-2.0295198E-1,-2.0337473E-1,-1.5000335E-2,1.119058E-2,-1.4620285E-1,-1.0172883E-1,-2.6162428E-1,-1.4363274E-1,4.8040238E-1,-1.0998431E-1,-2.9686E-1,2.2490335E-1,-1.5013433E-1,3.1830633E-1,-2.6512338E-2,-8.756718E-3,-1.00181155E-1,3.2359708E-2,-7.648919E-4,1.379782E-1,-1.21874735E-1,-2.0448275E-2,2.1403655E-1],"split_indices":[14,4,3,14,5,10,4,6,11,8,9,9,1,14,0,4,14,8,9,6,9,8,11,1,9,10,7,10,5,9,3,4,0,14,11,8,14,14,2,3,1,9,0,13,8,4,6,6,5,11,6,10,0,9,10,10,14,2,0,0,0,7,14,0,0,0,0,0,0,0,0,0,0,0,0,0,0,0,0,0,0,0,0,0,0,0,0,0,0,0,0,0,0,0,0,0,0,0,0,0,0,0,0,0,0,0,0,0,0,0,0,0,0,0,0,0,0,0,0,0,0],"split_type":[0,0,0,0,0,0,0,0,0,0,0,0,0,0,0,0,0,0,0,0,0,0,0,0,0,0,0,0,0,0,0,0,0,0,0,0,0,0,0,0,0,0,0,0,0,0,0,0,0,0,0,0,0,0,0,0,0,0,0,0,0,0,0,0,0,0,0,0,0,0,0,0,0,0,0,0,0,0,0,0,0,0,0,0,0,0,0,0,0,0,0,0,0,0,0,0,0,0,0,0,0,0,0,0,0,0,0,0,0,0,0,0,0,0,0,0,0,0,0,0,0],"sum_hessian":[9.508854E3,6.023686E2,8.906484E3,1.8872047E2,4.136481E2,7.7907733E2,8.1274077E3,9.530917E1,9.341131E1,1.8133221E2,2.3231587E2,5.717751E2,2.0730223E2,3.2145883E2,7.8059487E3,9.4777775E0,8.583139E1,8.547467E0,8.486384E1,1.6239917E2,1.893304E1,6.7921715E1,1.6439417E2,1.7934175E2,3.9243332E2,7.946035E1,1.2784189E2,8.185773E1,2.3960112E2,7.456971E3,3.4897763E2,5.3878284E0,4.0899496E0,6.0350185E1,2.5481209E1,6.2103643E0,2.3371027E0,3.7634497E0,8.1100395E1,1.4491144E2,1.7487736E1,1.1358685E1,7.5743556E0,6.445824E1,3.4634793E0,1.2274001E2,4.1654152E1,9.1737335E1,8.7604416E1,3.771623E2,1.5271033E1,3.059395E1,4.88664E1,8.285593E1,4.4985962E1,5.3460743E1,2.8396984E1,7.0983475E1,1.6861765E2,8.9651355E2,6.5604575E3,1.7780704E2,1.711706E2,4.2821856E0,1.1056428E0,1.65708E0,5.8693104E1,3.618701E0,2.1862507E1,1.0719572E0,5.138407E0,1.1979531E0,1.1391495E0,1.9764063E0,1.7870432E0,4.7593226E0,7.634107E1,1.3105293E2,1.3858515E1,2.9136763E0,1.45740595E1,8.596991E0,2.761694E0,2.0453325E1,4.400491E1,1.6100353E0,1.853444E0,1.1205287E2,1.06871395E1,9.458164E0,3.2195988E1,5.0499214E1,4.1238117E1,1.9327326E1,6.827709E1,2.013524E2,1.7580989E2,1.4054413E1,1.21662E0,2.656948E1,4.024471E0,5.1425236E1,3.1430687E1,2.0319525E1,2.4666437E1,5.1793484E1,1.6672567E0,3.5946522E0,2.4802332E1,1.701789E0,6.9281685E1,3.2384133E0,1.6537923E2,7.099061E2,1.8660742E2,1.4552487E3,5.105209E3,7.5116034E0,1.7029544E2,1.5976422E2,1.1406374E1],"tree_param":{"num_deleted":"0","num_feature":"15","num_nodes":"121","size_leaf_vector":"1"}},{"base_weights":[-3.794398E-2,-4.9828613E-1,-2.7477555E-2,-7.5680983E-1,-3.5521978E-1,-3.4728852E-1,-2.0792631E-2,-5.094539E-1,-8.4894484E-1,-6.525954E-1,-9.438309E-2,-6.19905E-1,-1.6343081E-1,-1.3496195E-1,-2.2512292E-4,-5.7463914E-1,1.2234339E-1,-1.7264755E-1,-8.803227E-1,-1.5412025E-1,-7.1195525E-1,1.156439E0,-1.89902E-1,-6.943036E-1,-2.3119934E-1,-6.553603E-1,-6.494264E-2,-6.535372E-2,-4.8241833E-1,-3.4779942E-1,5.1958137E-3,-2.1168719E-1,-8.0336565E-1,-1.8678997E-1,1.4609343E-1,-9.1074884E-1,-4.0221655E-1,-6.887403E-1,2.9745215E-1,-8.968727E-1,-4.5839283E-1,-1.7647637E-1,1.7622019E0,8.3302116E-1,-2.851088E-1,1.0846941E-1,-7.202124E-1,4.0059367E-1,-4.778253E-1,2.5735766E-1,-8.912149E-1,3.7691057E-1,-1.0737566E-1,-2.5849253E-1,-3.364098E-2,-7.053767E-1,-2.0725173E-1,1.9124655E-1,-4.963757E-1,-2.7715775E-1,1.1424717E-2,-1.24771945E-1,1.5337709E-1,-2.817008E-1,-8.0225535E-2,-2.7900034E-1,-5.6577507E-2,-2.2418317E-1,1.326612E-1,-2.4351944E-1,-3.312839E-2,-2.8548816E-1,2.8994037E-2,3.503326E-2,-1.9960831E-1,-1.6249524E-1,7.973677E-1,-8.3952576E-2,5.2103263E-1,-1.7046864E-1,6.9331746E-3,3.7537955E-3,-2.2324292E-1,-2.3958427E-1,3.607898E-2,4.1529754E-1,-2.1393074E-1,-3.3217058E-2,-2.8479883E-1,-4.1265205E-2,2.215925E-1,-1.6283338E-1,3.808552E-4,-1.9793368E-3,-8.69407E-2,-1.4725679E-1,-2.8971195E-1,1.9706257E-2,-1.4755248E-1,-7.057762E-2,2.1540806E-1,-2.6841137E-1,-7.8408286E-2,-9.881353E-2,3.5179523E-1,7.4029386E-2,1.582743E-3],"categories":[],"categories_nodes":[],"categories_segments":[],"categories_sizes":[],"default_left":[0,0,0,0,0,0,0,0,0,0,0,0,0,0,0,0,0,0,0,0,0,0,0,0,0,0,0,0,0,0,0,0,0,0,0,0,0,0,0,0,0,0,0,0,0,0,0,0,0,0,0,0,0,0,0,0,0,0,0,0,0,0,0,0,0,0,0,0,0,0,0,0,0,0,0,0,0,0,0,0,0,0,0,0,0,0,0,0,0,0,0,0,0,0,0,0,0,0,0,0,0,0,0,0,0,0,0],"id":9,"left_children":[1,3,5,7,9,11,13,15,17,19,21,23,25,27,29,31,-1,33,35,37,39,41,43,45,47,49,51,53,55,57,59,61,63,-1,-1,65,67,69,-1,71,73,-1,75,77,79,-1,81,-1,83,85,87,-1,89,91,93,95,97,99,101,103,105,-1,-1,-1,-1,-1,-1,-1,-1,-1,-1,-1,-1,-1,-1,-1,-1,-1,-1,-1,-1,-1,-1,-1,-1,-1,-1,-1,-1,-1,-1,-1,-1,-1,-1,-1,-1,-1,-1,-1,-1,-1,-1,-1,-1,-1,-1],"loss_changes":[4.521213E1,7.446903E0,1.9616604E1,1.2410622E0,1.050131E1,9.315399E0,2.1115004E1,1.5754747E0,9.515686E-1,1.768116E0,9.026913E0,2.0174732E0,5.459344E0,3.3166817E1,1.4360104E1,1.6029067E0,0E0,1.3568594E0,3.5308456E-1,5.6007543E0,2.2349606E0,6.7130103E0,6.990905E0,1.9760494E0,5.891704E0,4.283539E0,5.502055E0,7.0025477E0,1.3899242E1,9.468747E0,1.3201576E1,1.6319946E0,6.7523956E-1,0E0,0E0,4.6004105E-1,1.714436E0,3.417325E-1,0E0,1.8103981E0,3.1543298E0,0E0,1.0182871E1,6.6810117E0,5.6141024E0,0E0,1.0885105E0,0E0,2.4914627E0,6.065359E0,5.8386517E-1,0E0,2.492859E0,1.1911931E1,6.8174586E0,6.565365E0,8.101813E0,6.013021E0,8.381414E0,1.2652651E1,1.0625202E1,0E0,0E0,0E0,0E0,0E0,0E0,0E0,0E0,0E0,0E0,0E0,0E0,0E0,0E0,0E0,0E0,0E0,0E0,0E0,0E0,0E0,0E0,0E0,0E0,0E0,0E0,0E0,0E0,0E0,0E0,0E0,0E0,0E0,0E0,0E0,0E0,0E0,0E0,0E0,0E0,0E0,0E0,0E0,0E0,0E0,0E0],"parents":[2147483647,0,0,1,1,2,2,3,3,4,4,5,5,6,6,7,7,8,8,9,9,10,10,11,11,12,12,13,13,14,14,15,15,17,17,18,18,19,19,20,20,21,21,22,22,23,23,24,24,25,25,26,26,27,27,28,28,29,29,30,30,31,31,32,32,35,35,36,36,37,37,39,39,40,40,42,42,43,43,44,44,46,46,48,48,49,49,50,50,52,52,53,53,54,54,55,55,56,56,57,57,58,58,59,59,60,60],"right_children":[2,4,6,8,10,12,14,16,18,20,22,24,26,28,30,32,-1,34,36,38,40,42,44,46,48,50,52,54,56,58,60,62,64,-1,-1,66,68,70,-1,72,74,-1,76,78,80,-1,82,-1,84,86,88,-1,90,92,94,96,98,100,102,104,106,-1,-1,-1,-1,-1,-1,-1,-1,-1,-1,-1,-1,-1,-1,-1,-1,-1,-1,-1,-1,-1,-1,-1,-1,-1,-1,-1,-1,-1,-1,-1,-1,-1,-1,-1,-1,-1,-1,-1,-1,-1,-1,-1,-1,-1,-1],"split_conditions":[4.4032867E4,3.709823E4,2.2096984E4,3.0384271E4,5.1956938E4,2.5098033E4,3.0163602E4,2.962849E4,2.4122629E4,2.2063568E4,2.3531422E4,6.198566E4,5.408075E4,2.5868621E4,1.4465058E4,3.354323E4,1.2234339E-1,3.433656E4,4.3520996E4,2.3139006E4,5.5269883E4,4.159997E4,2.6176736E4,4.9480367E4,4.987353E4,2.6904281E4,5.4446258E4,2.0590354E4,3.2956973E4,5.0237652E4,2.2407795E4,3.3254734E4,2.9448137E4,-1.8678997E-1,1.4609343E-1,9.1196984E4,3.0049898E4,2.0701572E4,2.9745215E-1,4.302692E4,5.8795465E4,-1.7647637E-1,2.0927816E4,2.4645426E4,4.3616418E4,1.0846941E-1,4.523319E4,4.0059367E-1,5.2877434E4,1.9736408E4,1.2872965E4,3.7691057E-1,4.0495492E4,2.5645662E4,3.799704E4,2.1854314E4,2.9085389E4,6.5028895E4,3.1043012E4,5.447958E4,6.964332E3,-1.24771945E-1,1.5337709E-1,-2.817008E-1,-8.0225535E-2,-2.7900034E-1,-5.6577507E-2,-2.2418317E-1,1.326612E-1,-2.4351944E-1,-3.312839E-2,-2.8548816E-1,2.8994037E-2,3.503326E-2,-1.9960831E-1,-1.6249524E-1,7.973677E-1,-8.3952576E-2,5.2103263E-1,-1.7046864E-1,6.9331746E-3,3.7537955E-3,-2.2324292E-1,-2.3958427E-1,3.607898E-2,4.1529754E-1,-2.1393074E-1,-3.3217058E-2,-2.8479883E-1,-4.1265205E-2,2.215925E-1,-1.6283338E-1,3.808552E-4,-1.9793368E-3,-8.69407E-2,-1.4725679E-1,-2.8971195E-1,1.9706257E-2,-1.4755248E-1,-7.057762E-2,2.1540806E-1,-2.6841137E-1,-7.8408286E-2,-9.881353E-2,3.5179523E-1,7.4029386E-2,1.582743E-3],"split_indices":[14,4,4,6,1,5,3,9,14,0,6,14,14,7,5,4,0,9,14,9,2,5,8,13,9,9,14,3,1,0,9,4,8,0,0,1,4,0,0,13,2,0,0,8,9,0,14,0,0,4,2,0,5,1,13,13,6,13,4,4,7,0,0,0,0,0,0,0,0,0,0,0,0,0,0,0,0,0,0,0,0,0,0,0,0,0,0,0,0,0,0,0,0,0,0,0,0,0,0,0,0,0,0,0,0,0,0],"split_type":[0,0,0,0,0,0,0,0,0,0,0,0,0,0,0,0,0,0,0,0,0,0,0,0,0,0,0,0,0,0,0,0,0,0,0,0,0,0,0,0,0,0,0,0,0,0,0,0,0,0,0,0,0,0,0,0,0,0,0,0,0,0,0,0,0,0,0,0,0,0,0,0,0,0,0,0,0,0,0,0,0,0,0,0,0,0,0,0,0,0,0,0,0,0,0,0,0,0,0,0,0,0,0,0,0,0,0],"sum_hessian":[9.385578E3,2.0761226E2,9.177966E3,7.243353E1,1.3517873E2,1.8687343E2,8.991093E3,2.1429884E1,5.1003647E1,6.2463356E1,7.271538E1,7.431324E1,1.12560196E2,1.3716366E3,7.6194556E3,2.0356766E1,1.0731189E0,2.5497718E0,4.8453876E1,7.029487E0,5.543387E1,4.370938E0,6.834444E1,6.1714787E1,1.2598452E1,1.7833097E1,9.47271E1,1.1436998E3,2.2793683E2,1.1604182E2,7.503414E3,8.6137085E0,1.1743057E1,1.5490894E0,1.0006825E0,4.470405E1,3.7498274E0,5.064766E0,1.9647211E0,3.0588943E1,2.4844923E1,1.133933E0,3.2370048E0,5.159545E0,6.3184895E1,1.1678022E0,6.0546986E1,1.113219E0,1.1485232E1,3.6432312E0,1.4189866E1,2.057293E0,9.266981E1,1.6029723E2,9.834026E2,1.2504973E2,1.0288709E2,2.5011395E1,9.1030426E1,1.6101846E2,7.3423955E3,7.0475903E0,1.5661185E0,8.771207E0,2.9718504E0,4.326288E1,1.4411689E0,2.743696E0,1.0061314E0,3.8436964E0,1.2210696E0,2.9031155E1,1.5577886E0,6.689734E0,1.815519E1,1.0168307E0,2.220174E0,2.6216538E0,2.5378914E0,3.2493694E1,3.06912E1,1.9300032E0,5.861698E1,7.257399E0,4.2278333E0,1.4883687E0,2.1548624E0,1.1846737E0,1.3005193E1,9.028694E1,2.382864E0,7.6015656E1,8.428157E1,8.904253E2,9.297727E1,7.01386E1,5.491112E1,5.2911182E1,4.9975914E1,1.4126964E1,1.0884431E1,3.2737057E1,5.829337E1,1.5616632E2,4.85214E0,1.8595932E2,7.156436E3],"tree_param":{"num_deleted":"0","num_feature":"15","num_nodes":"107","size_leaf_vector":"1"}},{"base_weights":[-2.8387154E-2,-4.24732E-1,-2.0401107E-2,-8.142334E-1,-3.3089754E-1,-1.6638411E-2,-5.391603E-1,-3.240931E-1,-8.804539E-1,-1.8776041E-1,-6.1519474E-1,-8.460955E-2,3.1608033E-3,-8.636996E-1,-1.075048E-1,2.1109274E-1,-2.3633403E-1,-9.0997463E-1,-9.721277E-3,-2.3886609E-1,6.7207164E-1,-2.7906594E-1,-3.497127E-1,-5.7092838E-2,-5.260499E-1,6.4292386E-2,-2.4296012E-2,-1.9613102E-2,-8.864823E-1,1.4546894E-1,-7.887607E-1,-1.2617214E-2,-9.4096136E-1,-1.7925736E-1,-7.414711E-1,6.160692E-1,-4.0470347E-1,-7.423562E-1,2.3758772E-1,-3.1401908E-1,-3.0269135E-2,-1.9147974E-1,-6.673724E-1,3.826298E-2,2.447035E-1,-1.6156894E-1,-2.5971043E-3,-1.97922E-2,-9.103848E-1,1.1134832E0,-7.301812E-2,-1.03035055E-1,-2.6161128E-1,-2.9236478E-1,-5.875768E-2,-7.4029416E-2,3.497881E-1,-2.6943076E-1,-1.0879279E-1,1.0459211E-1,-2.3868291E-1,-2.6662695E-1,-4.0453367E-2,2.769437E-1,-1.2951824E-1,-1.18311666E-1,9.1733694E-2,1.2983678E-1,-1.241999E-2,-1.1632589E-1,3.6241E-1,-2.2024114E-1,4.86758E-2,3.33705E-2,-1.710495E-2,3.6433572E-1,6.636102E-2,-6.738408E-3,-9.415813E-2,1.3910677E-1,-2.746967E-3,-2.805494E-1,-5.6185495E-2,-8.0326796E-2,6.1310786E-1,-1.1243365E-1,2.1890412E-1],"categories":[],"categories_nodes":[],"categories_segments":[],"categories_sizes":[],"default_left":[0,0,0,0,0,0,0,0,0,0,0,0,0,0,0,0,0,0,0,0,0,0,0,0,0,0,0,0,0,0,0,0,0,0,0,0,0,0,0,0,0,0,0,0,0,0,0,0,0,0,0,0,0,0,0,0,0,0,0,0,0,0,0,0,0,0,0,0,0,0,0,0,0,0,0,0,0,0,0,0,0,0,0,0,0,0,0],"id":10,"left_children":[1,3,5,7,9,11,13,15,17,19,21,23,25,27,29,-1,-1,31,-1,33,35,-1,37,39,41,43,45,-1,47,49,51,-1,53,55,57,-1,59,61,63,65,67,69,71,73,75,77,79,-1,81,83,85,-1,-1,-1,-1,-1,-1,-1,-1,-1,-1,-1,-1,-1,-1,-1,-1,-1,-1,-1,-1,-1,-1,-1,-1,-1,-1,-1,-1,-1,-1,-1,-1,-1,-1,-1,-1],"loss_changes":[2.9416008E1,6.4395027E0,1.7780289E1,8.490982E-1,5.9726353E0,1.2178277E1,9.096424E0,3.290962E0,7.268028E-1,4.5964427E0,3.8280392E0,2.4765884E1,1.1765591E1,6.204834E-1,5.1633043E0,0E0,0E0,7.445488E-1,0E0,2.7438955E0,9.645834E0,0E0,6.760514E0,1.3240961E1,5.529808E0,1.0192888E1,1.4408021E1,0E0,6.4964676E-1,4.77787E0,4.377365E-4,0E0,5.1247215E-1,8.202974E0,2.594843E-1,0E0,1.5040543E0,1.4236536E0,5.995586E0,9.167175E0,8.996671E0,1.0614162E1,4.75634E0,1.3215141E1,5.969755E0,1.39800415E1,1.2782887E1,0E0,4.53516E-1,5.8801622E0,4.8891387E0,0E0,0E0,0E0,0E0,0E0,0E0,0E0,0E0,0E0,0E0,0E0,0E0,0E0,0E0,0E0,0E0,0E0,0E0,0E0,0E0,0E0,0E0,0E0,0E0,0E0,0E0,0E0,0E0,0E0,0E0,0E0,0E0,0E0,0E0,0E0,0E0],"parents":[2147483647,0,0,1,1,2,2,3,3,4,4,5,5,6,6,7,7,8,8,9,9,10,10,11,11,12,12,13,13,14,14,17,17,19,19,20,20,22,22,23,23,24,24,25,25,26,26,28,28,29,29,30,30,32,32,33,33,34,34,36,36,37,37,38,38,39,39,40,40,41,41,42,42,43,43,44,44,45,45,46,46,48,48,49,49,50,50],"right_children":[2,4,6,8,10,12,14,16,18,20,22,24,26,28,30,-1,-1,32,-1,34,36,-1,38,40,42,44,46,-1,48,50,52,-1,54,56,58,-1,60,62,64,66,68,70,72,74,76,78,80,-1,82,84,86,-1,-1,-1,-1,-1,-1,-1,-1,-1,-1,-1,-1,-1,-1,-1,-1,-1,-1,-1,-1,-1,-1,-1,-1,-1,-1,-1,-1,-1,-1,-1,-1,-1,-1,-1,-1],"split_conditions":[4.4032867E4,3.2102908E4,6.3252594E4,8.697976E3,5.1007426E4,6.123442E4,6.791511E4,3.7813824E4,9.1196984E4,5.366537E4,3.6622617E4,4.6285203E4,2.6824623E4,4.79529E4,7.141011E4,2.1109274E-1,-2.3633403E-1,4.954896E4,-9.721277E-3,7.3218945E4,4.758979E4,-2.7906594E-1,3.9033992E4,3.683477E4,3.0746498E4,2.4199447E4,6.6500695E4,-1.9613102E-2,1.8451861E4,7.150687E4,4.8304184E4,-1.2617214E-2,5.396296E4,7.629836E4,5.5159523E4,6.160692E-1,3.497172E4,5.7952207E4,3.769563E4,2.7478486E4,3.905755E4,6.1009242E4,6.4061367E4,6.5469664E4,7.566269E3,3.7562234E4,4.8982456E3,-1.97922E-2,7.670828E4,4.4062613E4,1.0664722E5,-1.03035055E-1,-2.6161128E-1,-2.9236478E-1,-5.875768E-2,-7.4029416E-2,3.497881E-1,-2.6943076E-1,-1.0879279E-1,1.0459211E-1,-2.3868291E-1,-2.6662695E-1,-4.0453367E-2,2.769437E-1,-1.2951824E-1,-1.18311666E-1,9.1733694E-2,1.2983678E-1,-1.241999E-2,-1.1632589E-1,3.6241E-1,-2.2024114E-1,4.86758E-2,3.33705E-2,-1.710495E-2,3.6433572E-1,6.636102E-2,-6.738408E-3,-9.415813E-2,1.3910677E-1,-2.746967E-3,-2.805494E-1,-5.6185495E-2,-8.0326796E-2,6.1310786E-1,-1.1243365E-1,2.1890412E-1],"split_indices":[14,4,0,11,5,14,9,12,1,4,14,0,8,9,0,0,0,10,0,1,9,0,0,3,11,8,14,0,12,6,12,0,12,3,9,0,14,2,11,6,7,6,9,14,2,8,13,0,0,3,1,0,0,0,0,0,0,0,0,0,0,0,0,0,0,0,0,0,0,0,0,0,0,0,0,0,0,0,0,0,0,0,0,0,0,0,0],"split_type":[0,0,0,0,0,0,0,0,0,0,0,0,0,0,0,0,0,0,0,0,0,0,0,0,0,0,0,0,0,0,0,0,0,0,0,0,0,0,0,0,0,0,0,0,0,0,0,0,0,0,0,0,0,0,0,0,0,0,0,0,0,0,0,0,0,0,0,0,0,0,0,0,0,0,0,0,0,0,0,0,0,0,0,0,0,0,0],"sum_hessian":[9.295224E3,1.8256172E2,9.112662E3,3.395192E1,1.486098E2,9.048066E3,6.45959E1,4.7426515E0,2.9209267E1,9.994846E1,4.8661335E1,2.040322E3,7.007744E3,3.630167E1,2.8294233E1,1.3136119E0,3.4290395E0,2.8156128E1,1.0531393E0,9.502281E1,4.925658E0,2.1109087E1,2.7552248E1,1.9216663E3,1.186557E2,2.1715427E3,4.836201E3,1.1146048E0,3.5187065E1,2.1206135E1,7.0880976E0,1.0518485E0,2.7104279E1,8.616083E1,8.861978E0,1.7601981E0,3.1654599E0,1.6354397E1,1.1197852E1,1.8064851E2,1.7410178E3,3.5935665E1,8.272003E1,1.8987992E3,2.7274347E2,6.592389E2,4.1769624E3,1.1024665E0,3.40846E1,3.1506665E0,1.805547E1,1.9239988E0,5.1640987E0,2.5640512E1,1.4637678E0,8.282116E1,3.3396702E0,5.299922E0,3.5620558E0,1.1183426E0,2.0471172E0,1.2805531E1,3.5488663E0,5.344457E0,5.853395E0,1.602383E2,2.0410223E1,3.9978386E1,1.7010394E3,3.214979E1,3.7858756E0,7.666542E1,6.054611E0,1.07518E3,8.2361914E2,5.254021E0,2.6748944E2,3.4513226E2,3.1410663E2,5.6977257E1,4.1199854E3,3.26717E1,1.4128985E0,1.5545377E0,1.5961288E0,1.3509795E1,4.5456734E0],"tree_param":{"num_deleted":"0","num_feature":"15","num_nodes":"87","size_leaf_vector":"1"}},{"base_weights":[-2.1152066E-2,-2.5896075E-1,-1.2448237E-2,-2.0804738E-1,-8.284614E-1,-8.914149E-2,3.474446E-3,-4.7472966E-1,-7.520348E-2,-2.1351686E-2,-8.5970134E-1,-6.485309E-2,-4.1619843E-1,-6.6371925E-2,3.191351E-2,-6.247081E-1,-1.7387125E-1,-7.1234554E-1,3.365074E-2,-5.975796E-2,-8.9211684E-1,-3.8108864E-1,-4.4978518E-2,-5.433847E-1,1.6997726E-1,-1.35260215E-2,-3.024826E-1,1.3663558E0,2.8266063E-2,-6.4674103E-1,6.1033003E-2,5.5157274E-1,-3.3280757E-1,-7.693354E-1,8.706224E-2,4.1830313E-1,-7.03662E-2,-2.902211E-1,-4.8669043E-1,1.0752536E-1,-4.8345393E-1,1.1642416E-1,-7.778697E-2,-6.557E-1,-8.327004E-2,8.871623E-1,-1.3202964E-1,4.392572E-2,-1.752628E-1,-2.2397527E-1,-8.1428546E-1,6.6012055E-1,6.527411E-1,-1.4034973E-1,3.6835495E-2,-2.0070708E-1,4.0537443E-2,-1.7724456E-1,2.7606517E-1,-2.5744107E-1,-5.66243E-2,-7.646264E-2,-2.766709E-1,5.3376812E-2,4.7563836E-1,-1.2941037E-1,1.3284308E-2,7.827131E-2,-2.3402677E-1,-1.661436E-1,9.726929E-2,-1.6749355E-1,3.588499E-2,-1.5675314E-2,1.1453799E-1,-2.5516622E-2,1.4562212E-1,-2.8270167E-1,-1.482855E-1,6.598087E-2,-2.7371982E-1,3.9270988E-1,-7.787243E-2,3.9855328E-1,-1.18169986E-1,-4.4119265E-3,7.093443E-2,-6.6540524E-2,5.304128E-2,-7.2851494E-2,2.2576049E-1,-2.7642632E-1,-1.3753997E-1,5.147057E-1,-9.138949E-2,-1.0597756E-1,-9.623357E-3,-1.1905845E-1,1.20818075E-2],"categories":[],"categories_nodes":[],"categories_segments":[],"categories_sizes":[],"default_left":[0,0,0,0,0,0,0,0,0,0,0,0,0,0,0,0,0,0,0,0,0,0,0,0,0,0,0,0,0,0,0,0,0,0,0,0,0,0,0,0,0,0,0,0,0,0,0,0,0,0,0,0,0,0,0,0,0,0,0,0,0,0,0,0,0,0,0,0,0,0,0,0,0,0,0,0,0,0,0,0,0,0,0,0,0,0,0,0,0,0,0,0,0,0,0,0,0,0,0],"id":11,"left_children":[1,3,5,7,9,11,13,15,17,-1,19,21,23,25,27,29,31,33,35,-1,37,39,41,43,45,47,49,51,53,55,-1,57,59,61,-1,63,65,-1,67,69,71,73,75,77,79,81,83,85,87,89,91,93,-1,95,97,-1,-1,-1,-1,-1,-1,-1,-1,-1,-1,-1,-1,-1,-1,-1,-1,-1,-1,-1,-1,-1,-1,-1,-1,-1,-1,-1,-1,-1,-1,-1,-1,-1,-1,-1,-1,-1,-1,-1,-1,-1,-1,-1,-1],"loss_changes":[1.9097912E1,9.273714E0,1.0872934E1,1.0605937E1,5.633602E-1,1.2132757E1,1.4649105E1,4.3896027E0,1.4012411E1,0E0,3.6319923E-1,8.94601E0,7.9678326E0,2.6622059E1,2.54701E1,1.3384113E0,4.1670566E0,1.9073601E0,6.9598722E0,0E0,2.5544357E-1,4.2630987E0,7.120285E0,4.44343E0,4.3614297E0,1.6219715E1,1.5496712E1,6.7182426E0,7.5586925E0,1.2170067E0,0E0,3.3169794E0,2.0299752E0,1.9803658E0,0E0,1.0102724E1,5.697584E0,0E0,1.4623214E0,2.386831E0,3.217516E0,1.0192445E1,4.612345E0,2.7644653E0,4.781968E0,3.2115264E0,6.1301365E0,1.4544758E1,7.5354424E0,6.440031E0,1.5414352E0,9.742399E0,0E0,5.821642E0,7.4330087E0,0E0,0E0,0E0,0E0,0E0,0E0,0E0,0E0,0E0,0E0,0E0,0E0,0E0,0E0,0E0,0E0,0E0,0E0,0E0,0E0,0E0,0E0,0E0,0E0,0E0,0E0,0E0,0E0,0E0,0E0,0E0,0E0,0E0,0E0,0E0,0E0,0E0,0E0,0E0,0E0,0E0,0E0,0E0,0E0],"parents":[2147483647,0,0,1,1,2,2,3,3,4,4,5,5,6,6,7,7,8,8,10,10,11,11,12,12,13,13,14,14,15,15,16,16,17,17,18,18,20,20,21,21,22,22,23,23,24,24,25,25,26,26,27,27,28,28,29,29,31,31,32,32,33,33,35,35,36,36,38,38,39,39,40,40,41,41,42,42,43,43,44,44,45,45,46,46,47,47,48,48,49,49,50,50,51,51,53,53,54,54],"right_children":[2,4,6,8,10,12,14,16,18,-1,20,22,24,26,28,30,32,34,36,-1,38,40,42,44,46,48,50,52,54,56,-1,58,60,62,-1,64,66,-1,68,70,72,74,76,78,80,82,84,86,88,90,92,94,-1,96,98,-1,-1,-1,-1,-1,-1,-1,-1,-1,-1,-1,-1,-1,-1,-1,-1,-1,-1,-1,-1,-1,-1,-1,-1,-1,-1,-1,-1,-1,-1,-1,-1,-1,-1,-1,-1,-1,-1,-1,-1,-1,-1,-1,-1],"split_conditions":[4.8147227E4,3.8461207E4,3.1696705E4,3.6665043E4,2.2612508E4,3.906025E4,3.2373879E4,4.5603293E4,2.3139006E4,-2.1351686E-2,1.8028682E4,2.3615803E4,7.470277E4,2.4178041E4,7.154649E3,4.836363E4,8.697976E3,5.7952207E4,2.5375004E4,-5.975796E-2,7.546962E4,6.8805766E4,2.5561967E4,3.0049898E4,7.5323914E4,3.1131176E4,5.8666297E4,4.451836E4,2.585412E4,8.9389336E4,6.1033003E-2,1.5041858E4,1.9354883E4,2.1854314E4,8.706224E-2,2.4645426E4,3.324876E4,-2.902211E-1,7.7211695E4,5.7302664E4,3.521273E4,4.377791E4,3.697146E4,6.3621625E4,1.0702661E5,2.8819035E4,1.0957108E5,3.0472184E4,5.939026E4,4.4642117E4,7.265862E4,3.0754812E4,6.527411E-1,1.6053352E4,7.895877E3,-2.0070708E-1,4.0537443E-2,-1.7724456E-1,2.7606517E-1,-2.5744107E-1,-5.66243E-2,-7.646264E-2,-2.766709E-1,5.3376812E-2,4.7563836E-1,-1.2941037E-1,1.3284308E-2,7.827131E-2,-2.3402677E-1,-1.661436E-1,9.726929E-2,-1.6749355E-1,3.588499E-2,-1.5675314E-2,1.1453799E-1,-2.5516622E-2,1.4562212E-1,-2.8270167E-1,-1.482855E-1,6.598087E-2,-2.7371982E-1,3.9270988E-1,-7.787243E-2,3.9855328E-1,-1.18169986E-1,-4.4119265E-3,7.093443E-2,-6.6540524E-2,5.304128E-2,-7.2851494E-2,2.2576049E-1,-2.7642632E-1,-1.3753997E-1,5.147057E-1,-9.138949E-2,-1.0597756E-1,-9.623357E-3,-1.1905845E-1,1.20818075E-2],"split_indices":[14,11,4,4,1,8,3,14,9,0,9,0,14,7,10,5,11,2,8,0,5,7,11,4,14,1,8,9,9,1,0,8,2,13,0,8,9,0,5,3,9,9,12,14,1,5,7,3,9,1,14,6,0,13,10,0,0,0,0,0,0,0,0,0,0,0,0,0,0,0,0,0,0,0,0,0,0,0,0,0,0,0,0,0,0,0,0,0,0,0,0,0,0,0,0,0,0,0,0],"split_type":[0,0,0,0,0,0,0,0,0,0,0,0,0,0,0,0,0,0,0,0,0,0,0,0,0,0,0,0,0,0,0,0,0,0,0,0,0,0,0,0,0,0,0,0,0,0,0,0,0,0,0,0,0,0,0,0,0,0,0,0,0,0,0,0,0,0,0,0,0,0,0,0,0,0,0,0,0,0,0,0,0,0,0,0,0,0,0,0,0,0,0,0,0,0,0,0,0,0,0],"sum_hessian":[9.227286E3,3.2478055E2,8.902505E3,2.9938116E2,2.5399376E1,1.5297427E3,7.3727627E3,9.868959E1,2.0069157E2,1.1361499E0,2.4263226E1,1.4251075E3,1.04635216E2,2.132936E3,5.2398267E3,6.51405E1,3.3549088E1,2.8475523E1,1.7221605E2,1.4693022E0,2.2793924E1,8.3193504E1,1.341914E3,8.603966E1,1.8595562E1,1.7437173E3,3.8921863E2,1.3264646E1,5.226562E3,6.3665737E1,1.4747658E0,5.585303E0,2.7963783E1,2.7164015E1,1.3115076E0,3.601433E1,1.3620172E2,1.805501E1,4.738914E0,1.4401463E1,6.879204E1,2.2626152E2,1.1156525E3,6.881631E1,1.722335E1,4.936099E0,1.3659462E1,1.2872072E3,4.5651016E2,3.3870157E2,5.051707E1,8.0535345E0,5.2111106E0,2.5203505E2,4.974527E3,6.2041916E1,1.623822E0,1.215606E0,4.3696966E0,4.9513545E0,2.301243E1,6.834651E0,2.0329365E1,3.0819407E1,5.1949277E0,3.2163277E1,1.04038445E2,1.366854E0,3.37206E0,3.170427E0,1.1231035E1,6.126194E1,7.5301003E0,1.388244E2,8.743713E1,1.1022758E3,1.3376701E1,2.304871E1,4.5767597E1,1.3149439E1,4.073911E0,3.5050905E0,1.4310087E0,1.4574728E0,1.2201989E1,9.87416E2,2.9979114E2,4.0353745E2,5.297271E1,3.3302E2,5.681554E0,3.760484E1,1.2912231E1,3.474074E0,4.579461E0,8.4199715E1,1.6783534E2,3.8214813E1,4.936312E3],"tree_param":{"num_deleted":"0","num_feature":"15","num_nodes":"99","size_leaf_vector":"1"}},{"base_weights":[-1.618492E-2,-1.3217493E-2,-4.7083694E-1,-1.2801145E-1,-3.3498295E-3,-7.9265547E-1,-1.1066066E-1,-8.0584776E-1,-1.04828626E-1,-1.2174024E-1,4.3874257E-3,-1.075402E-2,-8.1765413E-1,9.353168E-2,-7.496904E-1,-8.7174547E-1,-2.7186063E-1,-5.393064E-1,-6.39969E-2,-1.7847925E-1,4.8439957E-2,8.1166975E-2,-9.527864E-3,-9.240274E-1,-4.7028095E-1,-2.277247E-1,2.1696423E-1,-9.061985E-2,-2.5202528E-1,-6.1728753E-2,-9.1280407E-1,1.4742957E-1,-2.0467907E-1,1.3558421E-2,-5.967982E-1,-4.3087354E-1,-2.2159053E-2,-1.18575856E-1,-5.861646E-1,1.0132769E0,-8.362885E-3,7.274467E-1,7.668441E-2,5.31879E-3,-1.0001198E-1,-1.8000085E-2,-2.9005504E-1,2.9408282E-1,-7.7180034E-1,-3.927312E-2,1.1863551E0,-1.1324219E-1,-2.8770655E-1,2.9107773E-1,-1.3421291E-1,-4.9100436E-2,-2.0896138E-1,3.624791E-1,-1.4447975E-1,-2.848704E-3,-2.6918814E-1,-3.893738E-2,5.246262E-1,-1.9397026E-1,1.1123151E-1,5.9929466E-1,-1.696501E-2,-5.421401E-2,5.289608E-2,7.746498E-3,7.934549E-2,-5.2141983E-2,3.1564552E-3,-2.1105256E-2,-1.6294107E-1,-2.8548421E-2,-2.620761E-1,1.07571535E-1,-1.6732532E-1,1.03225514E-1,4.1266116E-1],"categories":[],"categories_nodes":[],"categories_segments":[],"categories_sizes":[],"default_left":[0,0,0,0,0,0,0,0,0,0,0,0,0,0,0,0,0,0,0,0,0,0,0,0,0,0,0,0,0,0,0,0,0,0,0,0,0,0,0,0,0,0,0,0,0,0,0,0,0,0,0,0,0,0,0,0,0,0,0,0,0,0,0,0,0,0,0,0,0,0,0,0,0,0,0,0,0,0,0,0,0],"id":12,"left_children":[1,3,5,7,9,11,13,15,17,19,21,-1,23,25,27,29,31,33,35,37,39,41,43,45,47,-1,49,-1,-1,-1,51,-1,-1,53,55,57,59,61,63,65,67,-1,69,71,73,-1,-1,-1,75,77,79,-1,-1,-1,-1,-1,-1,-1,-1,-1,-1,-1,-1,-1,-1,-1,-1,-1,-1,-1,-1,-1,-1,-1,-1,-1,-1,-1,-1,-1,-1],"loss_changes":[1.2370956E1,1.0325272E1,6.804414E0,1.1253687E1,7.690581E0,5.617275E-1,3.8829293E0,5.9737873E-1,1.2362776E1,4.9816904E0,8.420979E0,0E0,6.812E-1,2.588743E0,3.7035942E-2,3.7693596E-1,1.6064543E0,1.9119396E0,9.812742E0,9.36862E0,7.1093264E0,1.2518408E1,8.964641E0,7.589493E-1,4.743307E0,0E0,5.237613E0,0E0,0E0,0E0,1.12122536E-1,0E0,0E0,3.353222E0,2.2308064E0,6.023861E0,6.368884E0,7.3099957E0,3.0868607E0,7.7079134E0,3.9582078E0,0E0,1.1532234E1,5.3448057E0,1.2324583E1,0E0,0E0,0E0,4.7515488E-1,3.8091974E0,2.2799206E-1,0E0,0E0,0E0,0E0,0E0,0E0,0E0,0E0,0E0,0E0,0E0,0E0,0E0,0E0,0E0,0E0,0E0,0E0,0E0,0E0,0E0,0E0,0E0,0E0,0E0,0E0,0E0,0E0,0E0,0E0],"parents":[2147483647,0,0,1,1,2,2,3,3,4,4,5,5,6,6,7,7,8,8,9,9,10,10,12,12,13,13,14,14,15,15,16,16,17,17,18,18,19,19,20,20,21,21,22,22,23,23,24,24,26,26,30,30,33,33,34,34,35,35,36,36,37,37,38,38,39,39,40,40,42,42,43,43,44,44,48,48,49,49,50,50],"right_children":[2,4,6,8,10,12,14,16,18,20,22,-1,24,26,28,30,32,34,36,38,40,42,44,46,48,-1,50,-1,-1,-1,52,-1,-1,54,56,58,60,62,64,66,68,-1,70,72,74,-1,-1,-1,76,78,80,-1,-1,-1,-1,-1,-1,-1,-1,-1,-1,-1,-1,-1,-1,-1,-1,-1,-1,-1,-1,-1,-1,-1,-1,-1,-1,-1,-1,-1,-1],"split_conditions":[6.3252594E4,5.38612E4,6.791511E4,3.11697E4,2.3378705E4,3.0915664E4,7.141011E4,4.655802E4,2.4911336E4,6.43328E4,3.1078535E4,-1.075402E-2,7.162332E4,1.8854951E4,4.8304184E4,3.475404E4,3.6949598E4,1.3178246E4,2.1267273E4,2.313878E4,5.6224156E4,7.14872E4,4.3585094E4,3.976928E4,8.8911195E4,-2.277247E-1,1.0664722E5,-9.061985E-2,-2.5202528E-1,-6.1728753E-2,4.4855273E4,1.4742957E-1,-2.0467907E-1,1.7636398E4,2.6904281E4,3.1637738E4,5.6927027E4,3.3946223E4,3.1553305E4,1.0201606E5,3.523254E4,7.274467E-1,3.0192111E4,2.0590354E4,3.4375285E4,-1.8000085E-2,-2.9005504E-1,2.9408282E-1,1.5831501E4,7.4905164E4,1.0761944E5,-1.1324219E-1,-2.8770655E-1,2.9107773E-1,-1.3421291E-1,-4.9100436E-2,-2.0896138E-1,3.624791E-1,-1.4447975E-1,-2.848704E-3,-2.6918814E-1,-3.893738E-2,5.246262E-1,-1.9397026E-1,1.1123151E-1,5.9929466E-1,-1.696501E-2,-5.421401E-2,5.289608E-2,7.746498E-3,7.934549E-2,-5.2141983E-2,3.1564552E-3,-2.1105256E-2,-1.6294107E-1,-2.8548421E-2,-2.620761E-1,1.07571535E-1,-1.6732532E-1,1.03225514E-1,4.1266116E-1],"split_indices":[0,14,9,3,5,2,0,7,4,9,5,0,14,12,12,7,10,2,9,2,0,1,13,11,4,0,1,0,0,0,14,0,0,11,9,3,0,4,2,1,4,0,5,3,2,0,0,0,1,6,3,0,0,0,0,0,0,0,0,0,0,0,0,0,0,0,0,0,0,0,0,0,0,0,0,0,0,0,0,0,0],"split_type":[0,0,0,0,0,0,0,0,0,0,0,0,0,0,0,0,0,0,0,0,0,0,0,0,0,0,0,0,0,0,0,0,0,0,0,0,0,0,0,0,0,0,0,0,0,0,0,0,0,0,0,0,0,0,0,0,0,0,0,0,0,0,0,0,0,0,0,0,0,0,0,0,0,0,0,0,0,0,0,0,0],"sum_hessian":[9.173079E3,9.114619E3,5.846032E1,7.2052527E2,8.394094E3,3.0240025E1,2.8220295E1,2.2711428E1,6.9781384E2,5.1402875E2,7.880065E3,1.0447651E0,2.919526E1,2.2033466E1,6.1868277E0,1.9653524E1,3.0579023E0,5.8897346E1,6.389165E2,3.8546408E2,1.2856464E2,1.2082952E3,6.67177E3,2.1080048E1,8.1152115E0,2.1351411E0,1.9898325E1,1.7689203E0,4.417907E0,1.4903896E0,1.8163136E1,1.0002111E0,2.0576913E0,5.619741E0,5.3277603E1,6.445051E1,5.74466E2,3.3720728E2,4.8256832E1,6.2119374E0,1.223527E2,1.2758712E0,1.2070193E3,5.7321743E3,9.395952E2,1.108815E0,1.9971233E1,1.0091666E0,7.106045E0,1.649715E1,3.4011753E0,2.172049E0,1.5991086E1,1.4679444E0,4.151797E0,1.0466539E1,4.2811066E1,1.2496594E0,6.320085E1,5.672684E2,7.1976357E0,3.36119E2,1.0882756E0,4.5696735E1,2.5600967E0,2.7835069E0,3.4284306E0,6.3300625E1,5.905208E1,9.506803E2,2.5633896E2,1.6087794E2,5.5712964E3,8.81734E2,5.7861237E1,1.1821924E0,5.923852E0,9.509001E0,6.988149E0,1.1408272E0,2.2603483E0],"tree_param":{"num_deleted":"0","num_feature":"15","num_nodes":"81","size_leaf_vector":"1"}},{"base_weights":[-1.2105231E-2,-2.562715E-1,-8.240382E-3,-1.9202413E-1,-7.636107E-1,1.215917E-4,-1.02507934E-1,-4.6869028E-1,-3.3716E-2,-2.7970895E-1,-2.3677732E-1,-7.573775E-4,4.5718923E-1,-4.7521344E-1,-5.572858E-2,-2.9369843E-1,-8.4137446E-1,-6.561659E-1,1.1375409E-1,1.685734E-1,-2.1910174E-1,-5.718685E-3,1.9400057E-1,-6.68636E-1,6.098767E-2,-8.7680566E-1,-4.506864E-2,-4.15639E-1,6.534678E-1,2.3555823E-2,-2.903232E-1,3.581837E-2,-7.5477386E-1,7.859007E-3,8.525576E-1,-5.1133144E-1,-4.4876463E-3,1.9022391E0,1.2106634E-1,2.39836E-1,-7.476969E-1,3.874837E-1,-6.525413E-1,-1.4282738E-2,-2.95946E-1,8.550341E-1,-6.13103E-2,-1.9276002E-1,-4.1360144E-2,-4.6324204E-3,3.765077E-1,-9.0411834E-2,-2.5787956E-1,5.6172173E-2,-1.9029598E-1,3.650565E-1,-1.7565157E-1,-2.013413E-1,1.22098155E-1,-3.5958756E-2,1.315086E-4,6.139104E-1,1.8571526E-1,9.3300976E-2,-8.310229E-2,-2.305809E-1,5.3551763E-1,-9.133566E-3,-2.3230584E-1,-8.364401E-2,2.4219362E-1,4.8279956E-2,-2.6838025E-1,4.4234285E-1,-2.10446E-2,-1.0776115E-1,-1.1325641E-2],"categories":[],"categories_nodes":[],"categories_segments":[],"categories_sizes":[],"default_left":[0,0,0,0,0,0,0,0,0,0,0,0,0,0,0,0,0,0,0,0,0,0,0,0,0,0,0,0,0,0,0,0,0,0,0,0,0,0,0,0,0,0,0,0,0,0,0,0,0,0,0,0,0,0,0,0,0,0,0,0,0,0,0,0,0,0,0,0,0,0,0,0,0,0,0,0,0],"id":13,"left_children":[1,3,5,7,9,11,13,15,17,-1,19,21,-1,23,25,27,29,31,33,-1,-1,35,37,39,41,43,45,47,49,-1,-1,-1,51,53,55,57,59,61,63,65,67,69,71,-1,-1,73,75,-1,-1,-1,-1,-1,-1,-1,-1,-1,-1,-1,-1,-1,-1,-1,-1,-1,-1,-1,-1,-1,-1,-1,-1,-1,-1,-1,-1,-1,-1],"loss_changes":[8.616117E0,4.4908123E0,7.0876317E0,5.5736694E0,1.1711149E0,1.1064474E1,1.2746326E1,2.776908E0,7.624511E0,0E0,2.43603E0,7.9785805E0,0E0,8.500042E0,5.667511E0,4.0933695E0,1.7359142E0,1.3062215E0,5.262267E0,0E0,0E0,5.0094776E0,2.5325573E1,4.490593E0,5.503612E0,7.0813227E-1,9.477875E0,1.7975316E0,1.6944776E0,0E0,0E0,0E0,4.1794872E-1,7.0205355E0,5.130722E0,3.1418982E0,4.5657415E0,2.7400017E-1,1.5040848E1,1.0040103E1,1.0368099E0,4.726141E0,1.6105969E0,0E0,0E0,6.6908455E0,4.437413E0,0E0,0E0,0E0,0E0,0E0,0E0,0E0,0E0,0E0,0E0,0E0,0E0,0E0,0E0,0E0,0E0,0E0,0E0,0E0,0E0,0E0,0E0,0E0,0E0,0E0,0E0,0E0,0E0,0E0,0E0],"parents":[2147483647,0,0,1,1,2,2,3,3,4,4,5,5,6,6,7,7,8,8,10,10,11,11,13,13,14,14,15,15,16,16,17,17,18,18,21,21,22,22,23,23,24,24,25,25,26,26,27,27,28,28,32,32,33,33,34,34,35,35,36,36,37,37,38,38,39,39,40,40,41,41,42,42,45,45,46,46],"right_children":[2,4,6,8,10,12,14,16,18,-1,20,22,-1,24,26,28,30,32,34,-1,-1,36,38,40,42,44,46,48,50,-1,-1,-1,52,54,56,58,60,62,64,66,68,70,72,-1,-1,74,76,-1,-1,-1,-1,-1,-1,-1,-1,-1,-1,-1,-1,-1,-1,-1,-1,-1,-1,-1,-1,-1,-1,-1,-1,-1,-1,-1,-1,-1,-1],"split_conditions":[4.4032867E4,7.3218945E4,5.759514E4,2.903785E4,8.663991E4,1.0361137E5,6.192811E4,2.585412E4,3.0405379E4,-2.7970895E-1,8.873303E4,6.3776438E4,4.5718923E-1,7.807561E4,2.881997E4,2.5027361E4,2.159759E4,3.5614312E4,5.480885E4,1.685734E-1,-2.1910174E-1,1.4038304E4,3.35347E4,1.7347438E4,5.1831453E4,7.712825E4,3.0163602E4,6.2527605E4,4.0574195E4,2.3555823E-2,-2.903232E-1,3.581837E-2,1.8388117E4,5.9558934E4,5.37978E4,3.6964543E4,6.561237E3,3.3335027E4,3.1078535E4,4.835974E4,4.1004492E4,2.5500346E4,5.6390297E4,-1.4282738E-2,-2.95946E-1,3.0676984E4,3.0781412E4,-1.9276002E-1,-4.1360144E-2,-4.6324204E-3,3.765077E-1,-9.0411834E-2,-2.5787956E-1,5.6172173E-2,-1.9029598E-1,3.650565E-1,-1.7565157E-1,-2.013413E-1,1.22098155E-1,-3.5958756E-2,1.315086E-4,6.139104E-1,1.8571526E-1,9.3300976E-2,-8.310229E-2,-2.305809E-1,5.3551763E-1,-9.133566E-3,-2.3230584E-1,-8.364401E-2,2.4219362E-1,4.8279956E-2,-2.6838025E-1,4.4234285E-1,-2.10446E-2,-1.0776115E-1,-1.1325641E-2],"split_indices":[14,1,0,9,3,3,9,9,14,0,3,9,0,11,3,9,0,4,13,0,0,4,1,3,6,11,3,7,2,0,0,0,14,10,8,8,8,1,5,6,8,10,9,0,0,1,4,0,0,0,0,0,0,0,0,0,0,0,0,0,0,0,0,0,0,0,0,0,0,0,0,0,0,0,0,0,0],"split_type":[0,0,0,0,0,0,0,0,0,0,0,0,0,0,0,0,0,0,0,0,0,0,0,0,0,0,0,0,0,0,0,0,0,0,0,0,0,0,0,0,0,0,0,0,0,0,0,0,0,0,0,0,0,0,0,0,0,0,0,0,0,0,0,0,0,0,0,0,0,0,0,0,0,0,0,0,0],"sum_hessian":[9.131715E3,1.4127376E2,8.990441E3,1.26617874E2,1.4655881E1,8.258842E3,7.315993E2,4.5368786E1,8.1249084E1,1.0517289E1,4.1385913E0,8.255079E3,3.7621183E0,8.0563835E1,6.5103546E2,3.2089428E1,1.3279358E1,1.4901697E1,6.634739E1,1.5278008E0,2.6107905E0,8.0509585E3,2.0412128E2,5.9024925E1,2.1538912E1,7.3026133E0,6.4373285E2,2.892653E1,3.1628985E0,1.6496388E0,1.1629719E1,1.6571629E0,1.32445345E1,5.891373E1,7.433657E0,1.8548008E1,8.03241E3,7.331195E0,1.9679008E2,4.5626707E0,5.4462254E1,1.5090678E1,6.448233E0,1.0206316E0,6.281982E0,1.0494411E1,6.332384E2,1.5198589E1,1.3727941E1,1.9589512E0,1.2039474E0,3.2147393E0,1.0029795E1,4.6604107E1,1.2309623E1,6.0538807E0,1.3797765E0,1.6028002E1,2.5200074E0,3.279509E2,7.7044595E3,6.056205E0,1.2749904E0,1.3337181E2,6.3418262E1,3.0649955E0,1.4976748E0,2.028267E0,5.2433987E1,5.962949E0,9.127729E0,1.5555943E0,4.8926387E0,5.930214E0,4.5641975E0,4.536386E1,5.878746E2],"tree_param":{"num_deleted":"0","num_feature":"15","num_nodes":"77","size_leaf_vector":"1"}},{"base_weights":[-9.184952E-3,-7.1678776E-3,-3.724476E-1,-1.8805245E-1,-3.715387E-3,-7.0813406E-1,-8.762518E-2,-1.2814981E-1,-7.947476E-1,-4.8054773E-3,5.644368E-1,-8.631332E-1,-4.3418753E-1,7.0603974E-2,-6.8893194E-1,-3.7956437E-1,7.627726E-2,-9.1169626E-1,4.8055287E-2,-1.3567126E-1,-4.045167E-4,1.1893005E0,-2.0015784E-1,-1.5590901E-2,-2.7888247E-1,-7.755995E-1,2.0473103E-1,-2.084598E-1,1.6512297E-1,-2.3939653E-1,-6.3130155E-2,4.935049E-1,-4.167642E-1,2.967892E-1,-2.3667072E-1,-3.5678807E-1,-2.9322168E-1,-4.0466312E-1,-3.255133E-2,3.3820417E-2,-2.1674158E-2,1.9578646E-1,1.8879507E0,-6.57249E-1,2.9953468E-1,-2.0891346E-2,-2.6259798E-1,1.114915E0,-5.326228E-4,2.9200578E-1,-4.230578E-2,-2.3075365E-2,-1.644464E-1,3.271853E-2,7.775813E-1,3.1980598E-1,-1.07337125E-1,-1.5580872E-1,-4.892913E-3,-1.3473523E-1,1.0078455E-1,-2.3362996E-2,9.212292E-2,7.117981E-3,1.8314783E-1,-6.283177E-2,-3.7066694E-3,3.0730468E-1,-1.1005628E-1,7.227596E-1,2.1961084E-1,9.459608E-2,-2.6721677E-1,1.05234526E-1,4.1246733E-1,-1.5787227E-1,8.807162E-2],"categories":[],"categories_nodes":[],"categories_segments":[],"categories_sizes":[],"default_left":[0,0,0,0,0,0,0,0,0,0,0,0,0,0,0,0,0,0,0,0,0,0,0,0,0,0,0,0,0,0,0,0,0,0,0,0,0,0,0,0,0,0,0,0,0,0,0,0,0,0,0,0,0,0,0,0,0,0,0,0,0,0,0,0,0,0,0,0,0,0,0,0,0,0,0,0,0],"id":14,"left_children":[1,3,5,7,9,11,13,15,17,19,21,23,25,27,29,31,33,35,-1,37,39,41,43,-1,-1,45,-1,-1,47,-1,-1,49,51,53,55,57,-1,59,61,63,65,67,69,71,-1,-1,-1,73,75,-1,-1,-1,-1,-1,-1,-1,-1,-1,-1,-1,-1,-1,-1,-1,-1,-1,-1,-1,-1,-1,-1,-1,-1,-1,-1,-1,-1],"loss_changes":[6.669492E0,5.6552033E0,4.743672E0,6.0620103E0,5.5074134E0,5.988951E-1,2.7443564E0,8.023851E0,1.8266716E0,5.109655E0,8.373915E0,6.867695E-1,4.455222E0,1.8032442E0,1.4493465E-1,2.4767885E0,6.0482917E0,1.4557743E-1,0E0,7.99358E0,6.2497435E0,6.234747E0,5.320899E0,0E0,0E0,5.272474E-1,0E0,0E0,3.396047E0,0E0,0E0,1.1467699E0,2.9768906E0,2.180444E1,6.119105E0,1.5815374E-1,0E0,2.7815914E0,3.2527204E0,1.9139275E1,9.261779E0,2.727261E0,1.5325565E0,1.8173661E0,0E0,0E0,0E0,1.5449071E-1,3.1501467E0,0E0,0E0,0E0,0E0,0E0,0E0,0E0,0E0,0E0,0E0,0E0,0E0,0E0,0E0,0E0,0E0,0E0,0E0,0E0,0E0,0E0,0E0,0E0,0E0,0E0,0E0,0E0,0E0],"parents":[2147483647,0,0,1,1,2,2,3,3,4,4,5,5,6,6,7,7,8,8,9,9,10,10,11,11,12,12,13,13,14,14,15,15,16,16,17,17,19,19,20,20,21,21,22,22,25,25,28,28,31,31,32,32,33,33,34,34,35,35,37,37,38,38,39,39,40,40,41,41,42,42,43,43,47,47,48,48],"right_children":[2,4,6,8,10,12,14,16,18,20,22,24,26,28,30,32,34,36,-1,38,40,42,44,-1,-1,46,-1,-1,48,-1,-1,50,52,54,56,58,-1,60,62,64,66,68,70,72,-1,-1,-1,74,76,-1,-1,-1,-1,-1,-1,-1,-1,-1,-1,-1,-1,-1,-1,-1,-1,-1,-1,-1,-1,-1,-1,-1,-1,-1,-1,-1,-1],"split_conditions":[6.3252594E4,2.2407795E4,6.791511E4,2.2040652E4,7.140832E4,6.75487E4,7.141011E4,5.364776E4,6.0596434E4,2.4911336E4,3.3447223E4,3.9950734E4,5.764028E4,1.8854951E4,1.0864732E5,1.1667823E4,3.117471E4,2.11347E4,4.8055287E-2,5.721429E4,2.6583555E4,3.2783492E4,3.3941535E4,-1.5590901E-2,-2.7888247E-1,2.6259998E4,2.0473103E-1,-2.084598E-1,2.1735938E4,-2.3939653E-1,-6.3130155E-2,2.159759E4,3.5042184E4,5.3638684E4,5.408075E4,3.028272E4,-2.9322168E-1,4.2267484E4,2.5800283E4,2.6176736E4,1.3952952E4,3.1078535E4,6.2313445E4,3.9657434E4,2.9953468E-1,-2.0891346E-2,-2.6259798E-1,7.040881E4,2.9785557E4,2.9200578E-1,-4.230578E-2,-2.3075365E-2,-1.644464E-1,3.271853E-2,7.775813E-1,3.1980598E-1,-1.07337125E-1,-1.5580872E-1,-4.892913E-3,-1.3473523E-1,1.0078455E-1,-2.3362996E-2,9.212292E-2,7.117981E-3,1.8314783E-1,-6.283177E-2,-3.7066694E-3,3.0730468E-1,-1.1005628E-1,7.227596E-1,2.1961084E-1,9.459608E-2,-2.6721677E-1,1.05234526E-1,4.1246733E-1,-1.5787227E-1,8.807162E-2],"split_indices":[0,9,9,9,9,14,0,14,14,4,5,11,1,12,1,6,6,11,0,14,8,5,5,0,0,7,0,0,12,0,0,0,4,1,14,2,0,5,12,8,2,5,0,4,0,0,0,9,12,0,0,0,0,0,0,0,0,0,0,0,0,0,0,0,0,0,0,0,0,0,0,0,0,0,0,0,0],"split_type":[0,0,0,0,0,0,0,0,0,0,0,0,0,0,0,0,0,0,0,0,0,0,0,0,0,0,0,0,0,0,0,0,0,0,0,0,0,0,0,0,0,0,0,0,0,0,0,0,0,0,0,0,0,0,0,0,0,0,0,0,0,0,0,0,0,0,0,0,0,0,0,0,0,0,0,0,0],"sum_hessian":[9.10492E3,9.055656E3,4.9263264E1,1.68604E2,8.887053E3,2.193034E1,2.7332924E1,1.5455508E2,1.4048919E1,8.871023E3,1.6028927E1,1.2632261E1,9.298079E0,2.2337553E1,4.99537E0,6.892768E1,8.562741E1,1.2556433E1,1.4924859E0,2.8765207E2,8.583371E3,8.514774E0,7.5141516E0,1.0917646E0,1.1540497E1,7.3547454E0,1.9433334E0,1.756972E0,2.0580582E1,3.5244122E0,1.4709578E0,2.315572E0,6.6612114E1,5.0262604E1,3.5364807E1,2.0102117E0,1.0546221E1,7.890402E1,2.0874805E2,3.289559E3,5.2938125E3,4.044102E0,4.4706726E0,5.766674E0,1.747477E0,1.1205713E0,6.2341743E0,2.2054188E0,1.8375164E1,1.0144352E0,1.3011367E0,1.9014862E1,4.7597248E1,4.743062E1,2.8319821E0,2.3447464E0,3.302006E1,1.0049635E0,1.0052482E0,7.480738E1,4.096636E0,1.8484949E2,2.3898554E1,3.233994E3,5.5565228E1,2.4928886E2,5.0445234E3,1.303669E0,2.7404332E0,2.3339608E0,2.1367116E0,1.0484862E0,4.7181883E0,1.1562377E0,1.049181E0,6.3088603E0,1.2066303E1],"tree_param":{"num_deleted":"0","num_feature":"15","num_nodes":"77","size_leaf_vector":"1"}},{"base_weights":[-6.857966E-3,-4.5918066E-2,9.762663E-3,-1.6917773E-2,-2.4446492E-1,1.847321E-1,7.4675144E-4,-2.0612739E-2,1.2381247E0,-8.688263E-1,-2.0544189E-1,5.3049702E-2,4.0580612E-1,-3.6437264E-1,5.022481E-3,-2.4847966E-2,6.3111466E-1,2.4729772E0,1.8676738E-1,-4.805575E-2,-9.1205573E-1,9.1126376E-1,-2.2750412E-1,7.161599E-1,1.4282779E-2,-2.1471664E-1,5.52292E-1,-6.2433475E-1,5.1026314E-1,3.6362922E-1,2.774742E-3,-2.660526E-2,4.411013E-1,1.7518069E0,1.8759097E-1,9.6612537E-1,1.3726829E-1,-1.9209886E-1,7.551873E-1,-9.0381235E-2,-2.883678E-1,1.5647476E0,-3.5490525E-1,-1.9415076E-1,-8.077531E-1,-3.2734167E-2,7.1673584E-1,-4.540396E-1,1.14137486E-1,6.628039E-1,-5.775455E-1,-1.5644258E-1,7.129473E-1,4.0976685E-1,-7.833818E-1,1.662656E0,-2.8721237E-1,-2.813556E-1,5.130886E-1,-7.382248E-2,1.2564853E-2,-6.8567977E-3,-1.8578775E-1,1.4086044E-1,6.0148853E-1,-8.749157E-2,2.9588386E-1,7.836734E-2,